tree
version=v2
num_class=1
num_tree_per_iteration=1
label_index=0
max_feature_idx=97
objective=binary sigmoid:1
feature_names=Column_0 Column_1 Column_2 Column_3 Column_4 Column_5 Column_6 Column_7 Column_8 Column_9 Column_10 Column_11 Column_12 Column_13 Column_14 Column_15 Column_16 Column_17 Column_18 Column_19 Column_20 Column_21 Column_22 Column_23 Column_24 Column_25 Column_26 Column_27 Column_28 Column_29 Column_30 Column_31 Column_32 Column_33 Column_34 Column_35 Column_36 Column_37 Column_38 Column_39 Column_40 Column_41 Column_42 Column_43 Column_44 Column_45 Column_46 Column_47 Column_48 Column_49 Column_50 Column_51 Column_52 Column_53 Column_54 Column_55 Column_56 Column_57 Column_58 Column_59 Column_60 Column_61 Column_62 Column_63 Column_64 Column_65 Column_66 Column_67 Column_68 Column_69 Column_70 Column_71 Column_72 Column_73 Column_74 Column_75 Column_76 Column_77 Column_78 Column_79 Column_80 Column_81 Column_82 Column_83 Column_84 Column_85 Column_86 Column_87 Column_88 Column_89 Column_90 Column_91 Column_92 Column_93 Column_94 Column_95 Column_96 Column_97
feature_infos=none [-1:8] [0:1] [0:3211] [1:70486] [1:8] [0:6] [0:1] [1:222] [-99:167946] [-99:52] [1:296] [1:283] [7600:18242] [16:784] [0:2] [0:1] [0:2] [-99:429] [0:2] [-99:48] [0:6143] [0:345490] [-99:72] [0:10] [0:4472] [-99:11446328] [-99:11445712] [0:1] [-99:262144] [-99:142] [-99:12288] [-99:3840] [-99:4294967295] [9600:18242] [0:19102] [0:39] [5:161] [0:1] [0:2] [0:2] [0:2] [0:1083] [0:72091] [0:1] [0:2] [0:2] [0:1] [0:1] [0:2] [0:2] [0:15] none [0:3] [0:3] [0:2] [0:8] [0:7] [0:1] [0:7] [0:10] [0:2] [0:3] [0:2] [0:27] [0:8] [0:31] [0:2] [0:16] [0:15] [0:24] [0:8] [0:5] [0:3] [0:5] [0:6] none none [9600:18242] [0:19102] [9700:15300] [0:6] [4:18] [204:17686] [0:20082] none [0:277] [0:6023] [6:10] [0:3] [0:32] [0:144] [7600:18242] [0:24236] [90713:180914] [100:2340] [0:2] [0:37]
tree_sizes=2558 2579 2563 2581 2585 2571 2578 2559 2581 2576 2579 2570 2602 2584 2574 2570 2592 2574 2568 2588 2599 2577 2579 2598 2582 2575 2590 2598 2594 2603 2594 2597 2585 2602 2598 2599 2574 2590 2589 2600 2577 2610 2592 2592 2580 2597 2592 2615 2590 2618 2606 2604 2599 2602 2586 2603 2595 2600 2589 2600

Tree=0
num_leaves=30
num_cat=0
split_feature=59 4 59 81 26 4 4 4 81 30 19 23 30 81 4 46 36 1 87 87 36 26 94 82 55 59 84 4 4
split_gain=32797,4 11328,8 8172,7 4327,91 3377,3 2240,46 2090,52 1712,2 1336,74 1098,42 1031,95 994,46 878,769 802,222 773,985 773,527 705,291 678,138 667,27 563,548 373,678 371,467 330,368 288,491 274,371 259,603 255,088 252,033 297,369
threshold=1,5000000000000002 43488,000000000007 2,5000000000000004 1,5000000000000002 114471,50000000001 53467,500000000007 53388,000000000007 43197,500000000007 1,5000000000000002 13,450000000000001 1,5000000000000002 3,5000000000000004 11,450000000000001 4,5000000000000009 43488,000000000007 1,0000000180025095e-35 28,500000000000004 7,5000000000000009 48,500000000000007 1410,5000000000002 29,500000000000004 312384,00000000006 180366,00000000003 17,500000000000004 1,0000000180025095e-35 1,0000000180025095e-35 541,50000000000011 44157,500000000007 45725,000000000007
decision_type=2 2 2 2 2 2 2 2 2 2 2 2 2 2 2 2 2 2 2 2 2 2 2 2 2 2 2 2 2
left_child=1 10 7 4 12 6 27 -2 19 -8 16 21 -3 18 -4 -14 -1 -7 -5 24 -18 -11 26 -16 -9 -15 -13 -6 -29
right_child=2 3 14 13 5 17 9 8 -10 11 -12 22 15 25 23 -17 20 -19 -20 -21 -22 -23 -24 -25 -26 -27 -28 28 -30
leaf_value=-0,043646790458368931 0,030201967538204331 -0,043009824841710134 -0,027037655223433446 -0,0037250781867204847 0,006643155279001384 -0,027855254856675418 -0,0058659028887596693 0,068013061826707494 0,030532096511570433 -0,0084176126012756106 -6,1363605201995332e-05 0,0212692317575379 -0,010215453284529472 -0,021118058744646152 -0,0073017369234329599 -0,065674200061206847 -0,0098172988761876575 0,060629555480380536 -0,036462437494650703 0,084672039506668711 -0,038435955837696635 0,0063317985875549036 0,016623570211372389 0,017771294114680466 0,033244268162165788 0,0032921347271963001 0,0052031749234920533 -0,045311645992213594 -0,011046778268839831
leaf_count=83154 13720 15276 5989 7261 7702 24401 43528 43697 8339 26749 7018 12171 33367 7607 5788 2720 10618 898 43682 25770 8000 47216 169268 22153 2394 10197 52561 2653 55893
internal_value=0 -0,176664 0,92849 -0,0625234 0,0028564 0,0591395 0,09414 1,23242 1,34411 0,155563 -0,767509 0,197596 -0,482623 -0,53271 0,0871921 -0,312418 -0,818661 -0,518795 -0,660433 1,43207 -0,466796 -0,00455119 0,261493 0,227041 1,29964 -0,167255 0,139972 -0,231753 -0,276496
internal_count=799790 671940 127850 563150 494403 443040 417741 93920 80200 351493 108790 307965 51363 68747 33930 36087 101772 25299 50943 71861 18618 73965 234000 27941 46091 17804 64732 66248 58546
shrinkage=1


Tree=1
num_leaves=30
num_cat=0
split_feature=59 59 86 29 86 86 30 6 87 80 29 84 1 84 46 86 86 17 59 1 30 15 80 46 30 29 55 1 30
split_gain=29622 7390,85 6461,67 2704,4 1980,44 1312,71 918,112 720,178 678,906 667,57 601,547 591,134 769,552 743,596 579,376 439,838 423,553 384,448 632,728 361,179 346,337 323,476 295,053 291,866 290,931 271,497 265,688 261,11 260,847
threshold=1,5000000000000002 2,5000000000000004 272,00000000000006 4095,5000000000005 272,00000000000006 274,00000000000006 11,450000000000001 1,5000000000000002 1410,5000000000002 14650,000000000002 8191,5000000000009 18057,000000000004 6,0000000000000009 18016,500000000004 1,0000000180025095e-35 272,00000000000006 274,00000000000006 1,0000000180025095e-35 1,0000000180025095e-35 6,0000000000000009 13,850000000000003 1,0000000180025095e-35 15150,000000000002 1,0000000180025095e-35 13,850000000000003 8191,5000000000009 1,0000000180025095e-35 6,0000000000000009 15,450000000000001
decision_type=2 2 2 2 2 2 2 2 2 2 2 2 2 2 2 2 2 2 2 2 2 2 2 2 2 2 2 2 2
left_child=2 4 9 6 -2 7 -4 11 22 17 19 13 -13 -5 -8 -3 -10 18 -1 -7 -14 -22 -6 -17 -21 -23 -24 -12 -29
right_child=1 15 3 5 8 10 14 -9 16 -11 27 12 20 -15 -16 23 -18 -19 -20 24 21 25 26 -25 -26 -27 -28 28 -30
leaf_value=-0,045954116005835356 0,021934161574136316 -0,031957151982999393 -0,041950642734320552 0,0012822018901245578 0,0486924827116939 -0,041251618549348196 -0,014002323861313962 -0,029843731302245952 0,082219964450239449 -0,040491987382287986 -0,028031400676201829 -0,034663094102942077 -0,0037831434725509798 -0,029660800182753105 -0,062920635871250352 0,0092040187454548658 0,050402060603850989 -0,028948152136640776 0,0091706364998268407 -0,021220579089649819 -0,021125056684613602 0,0073047406413299099 0,066001789746667761 -0,056577607706624913 -0,0080040043143041629 0,016015867107762406 0,021449830881098714 -0,0091536203021267241 0,0027168854943868132
leaf_count=2916 12734 3070 16192 40758 21886 3732 71514 6125 23910 51482 3412 4185 19485 9596 2508 30170 5080 31132 7288 19180 3187 82459 28906 690 126625 63210 1404 23817 83137
internal_value=0 0,882811 -0,167855 -0,0893379 1,1721 -0,0306269 -0,407531 0,0797831 1,28723 -0,657826 -0,127911 0,0983754 0,154022 -0,092293 -0,313172 0,0828396 1,53287 -0,468522 -0,1316 -0,210577 0,175082 0,207905 1,15089 0,154665 -0,194852 0,221695 1,27873 -0,0159057 0,00146908
internal_count=799790 127850 671940 579122 93920 488908 90214 229005 81186 92818 259903 222880 172526 50354 74022 33930 28990 41336 10204 149537 168341 148856 52196 30860 145805 145669 30310 110366 106954
shrinkage=0.05


Tree=2
num_leaves=30
num_cat=0
split_feature=59 5 59 29 80 80 80 30 30 80 5 5 80 46 81 55 17 80 87 94 29 26 29 59 80 5 74 80 26
split_gain=26787,2 12559,3 6707,55 3975,09 2172,83 1799,97 1188,34 1141,69 1079,46 834,528 819,098 746,444 671,203 637,062 487,498 476,84 464,099 429,308 346,083 311,586 301,278 296,689 277,916 266,083 229,419 206,468 268,069 204,984 190,219
threshold=1,5000000000000002 1,5000000000000002 2,5000000000000004 4095,5000000000005 15050,000000000002 15050,000000000002 15050,000000000002 13,850000000000003 11,450000000000001 14650,000000000002 1,5000000000000002 1,5000000000000002 15150,000000000002 1,0000000180025095e-35 1,5000000000000002 1,0000000180025095e-35 1,0000000180025095e-35 15150,000000000002 1417,5000000000002 180328,00000000003 4095,5000000000005 121822,00000000001 8191,5000000000009 1,0000000180025095e-35 15050,000000000002 2,5000000000000004 1,0000000180025095e-35 15150,000000000002 953868,50000000012
decision_type=2 2 2 2 2 2 2 2 2 2 2 2 2 2 2 2 2 2 2 2 2 2 2 2 2 2 2 2 2
left_child=1 3 5 8 9 -2 -3 21 -1 16 15 20 19 14 -10 18 -5 25 27 -9 -4 -6 28 -21 -22 26 -8 -7 -14
right_child=2 6 11 4 7 10 17 12 13 -11 -12 -13 22 -15 -16 -17 -18 -19 -20 23 24 -23 -24 -25 -26 -27 -28 -29 -30
leaf_value=-0,041406100713170482 0,020844136865223545 -0,04422090037868364 -0,015566799036487661 0,023146508787341813 -0,023213496660200592 0,053989807060422369 -0,02493218630661358 0,0078368439686736981 -0,0071675896023508561 -0,029261411654136673 0,044239066890759987 -0,019759472518430812 -0,00044473190665698963 -0,059047358052582932 -0,03115826878231362 0,026666004034368869 -0,011885417178102979 -0,029579472885234215 0,079150909685063248 0,023991787790339652 -0,021098734837302742 -0,0027385481291705574 0,010514526649692303 0,01354395643989981 0,020317008301167127 -0,035818763571083899 -0,012613377727241963 0,06944599879899771 0,010591900823240132
leaf_count=16545 12712 38885 3164 5772 8785 14549 30819 38056 54957 22650 20874 9554 66670 2874 10025 2766 10975 89085 21906 46403 1435 36461 72755 51371 19777 7036 41422 21113 20394
internal_value=0 -0,1595 0,840557 0,0231099 0,110247 1,11684 -0,569068 0,161624 -0,369673 -0,334681 1,2268 0,0787052 0,206904 -0,258015 -0,21731 1,34529 0,00382381 -0,496297 1,38442 0,310282 0,264432 -0,134262 0,119051 0,37005 0,350312 -0,38922 -0,357365 1,26273 0,0428106
internal_count=799790 671940 127850 464693 380292 93920 207247 340895 84401 39397 81208 33930 295649 67856 64982 60334 16747 168362 57568 135830 24376 45246 159819 97774 21212 79277 72241 35662 87064
shrinkage=0.05


Tree=3
num_leaves=30
num_cat=0
split_feature=59 59 86 29 83 86 86 51 47 87 6 1 1 46 29 86 15 83 86 71 71 51 83 84 46 86 1 55 6
split_gain=24252,3 6105,95 5300,18 2230,66 1764,64 1650,4 1152,27 674,073 612,553 590,366 579,266 521,182 508,918 482,485 480,399 386,857 382,137 384,988 370,262 361,544 361,179 352,534 281,244 260,957 255,971 250,371 237,226 226,932 214,302
threshold=1,5000000000000002 2,5000000000000004 272,00000000000006 4095,5000000000005 17373,500000000004 272,00000000000006 274,00000000000006 1,0000000180025095e-35 1,0000000180025095e-35 1410,5000000000002 1,5000000000000002 6,0000000000000009 6,0000000000000009 1,0000000180025095e-35 8191,5000000000009 274,00000000000006 1,0000000180025095e-35 15681,000000000002 272,00000000000006 1,0000000180025095e-35 3,5000000000000004 11,500000000000002 17070,500000000004 18016,500000000004 1,0000000180025095e-35 274,00000000000006 7,5000000000000009 1,0000000180025095e-35 1,5000000000000002
decision_type=2 2 2 2 2 2 2 2 2 2 2 2 2 2 2 2 2 2 2 2 2 2 2 2 2 2 2 2 2
left_child=2 5 7 8 6 -2 10 20 13 25 12 23 -5 -4 21 -11 26 19 -3 -18 -1 -13 -9 -8 -20 -7 -14 -27 -16
right_child=1 18 3 4 -6 9 11 22 -10 15 -12 14 16 -15 28 -17 17 -19 24 -21 -22 -23 -24 -25 -26 27 -28 -29 -30
leaf_value=0,019699132247909191 0,019818052255733253 -0,029397122869496185 -0,012998862013649796 -0,025064448088225545 -0,036268931329711172 0,044053105104878358 0,0074882478688596144 -0,028166881631244402 -0,03581958779481749 0,075491364865908128 -0,026025299167258122 -0,0058534203336466605 -0,02564063722834006 -0,056552454366262196 0,0016526757000805772 0,044954319731747884 0,01479658294810543 -0,0067562586174074735 0,0084109561238317841 0,0054746752335054719 -0,029784444492565832 -0,019799594258779203 -0,040378738489408594 -0,041241696666319973 -0,053243471479050099 0,060062683667185396 0,05378098522937285 0,018836141639811205 -0,02938518096358287
leaf_count=4039 12734 3070 70888 5220 14074 21894 1366 58510 16669 23910 5886 120706 5004 2657 102504 5080 62682 17885 30170 123886 2326 21339 27943 5673 690 28899 407 1403 2276
internal_value=0 0,801362 -0,151602 -0,0805308 -0,0272156 1,06598 -0,00652739 -0,595909 -0,369674 1,17185 0,0990984 -0,0984643 0,116029 -0,291249 -0,0831705 1,40239 0,131367 0,145253 0,0747918 0,172127 0,0323745 -0,158969 -0,642262 -0,635639 0,140686 1,04446 -0,393372 1,16281 0,0195776
internal_count=799790 127850 671940 579122 488908 93920 474834 92818 90214 81186 220970 253864 215084 73545 246825 28990 209864 204453 33930 186568 6365 142045 86453 7039 30860 52196 5411 30302 104780
shrinkage=0.05


Tree=4
num_leaves=30
num_cat=0
split_feature=5 30 80 71 4 4 46 80 84 80 70 80 84 71 30 55 70 36 84 80 17 30 55 4 15 84 80 4 4
split_gain=13711,1 3774,88 3325,54 2630,95 2127,64 1197,05 1172,68 1168,65 1056,4 1073,79 904,104 869,768 620,923 602,979 575,544 545,873 410,98 364,323 408,23 493,986 340,917 338,815 332,623 297,297 258,066 257,082 244,822 225,624 209,681
threshold=1,5000000000000002 11,450000000000001 15050,000000000002 1,0000000180025095e-35 43488,000000000007 44157,500000000007 1,0000000180025095e-35 14650,000000000002 18057,000000000004 15150,000000000002 1,5000000000000002 15050,000000000002 541,50000000000011 1,5000000000000002 1,0000000180025095e-35 1,0000000180025095e-35 1,5000000000000002 28,500000000000004 18016,500000000004 15050,000000000002 1,0000000180025095e-35 15,450000000000001 1,0000000180025095e-35 7964,0000000000009 1,0000000180025095e-35 541,50000000000011 15150,000000000002 15604,500000000002 53304,500000000007
decision_type=2 2 2 2 2 2 2 2 2 2 2 2 2 2 2 2 2 2 2 2 2 2 2 2 2 2 2 2 2
left_child=1 14 7 8 17 -6 10 20 -4 22 12 -7 13 -5 -1 21 26 18 19 -2 -3 -14 24 -19 -10 -8 -13 -20 -18
right_child=4 2 3 6 5 11 25 -9 9 -11 -12 16 15 -15 -16 -17 28 23 27 -21 -22 -23 -24 -25 -26 -27 -28 -29 -30
leaf_value=0,010287358246720529 -0,037623335854875643 0,024677264724220202 -0,0075273797691915827 0,033990096907053388 0,01817730938782015 -0,032667842262085023 0,0098810737740840128 -0,023521265812387442 -0,010049538628765602 0,017494048810243829 0,018821359023525587 -0,0079499896473087771 -0,0002729781319384253 0,0079511900926664564 -0,033569325722736833 -0,010840788833721415 0,002710293744326844 -0,0042226759275940055 -0,041751321692924476 -0,014349513447418137 -0,0022296487684663707 0,008747621186101744 0,007977282651967765 -0,028281446631653218 0,038772059444178011 -0,055030446823228329 -0,021351750651880479 -0,029521053604658294 -0,018226279436423597
leaf_count=3439 15177 6589 9203 14900 13061 20252 744 35258 1106 56868 76616 26017 59632 22177 23478 21224 27721 9586 36684 23092 16565 138910 3944 11108 62623 3522 28746 25746 5802
internal_value=0 0,17326 0,210394 0,26622 -0,396937 -0,209709 0,172166 -0,240497 0,504164 0,552612 0,185471 -0,278586 0,128562 0,368215 -0,559054 0,0881395 -0,192838 -0,584541 -0,63432 -0,471346 0,108697 0,120777 0,723416 -0,34265 0,758466 -0,873887 -0,299687 -0,734144 -0,0182088
internal_count=799790 556798 529881 471469 242992 121599 337725 58412 133744 124541 333459 108538 256843 37077 26917 219766 88286 121393 100699 38269 23154 198542 67673 20694 63729 4266 54763 62430 33523
shrinkage=0.05


Tree=5
num_leaves=30
num_cat=0
split_feature=5 29 86 4 86 4 30 86 87 86 46 30 86 50 4 50 69 36 84 86 86 87 4 17 26 84 41 50 86
split_gain=12385,2 4375,38 2270,08 1924,64 1220,18 1080,97 1071,42 791,74 769,575 721,995 614,587 612,222 427,198 424,048 392,679 349,313 329,984 329,983 370,66 452,428 317,138 288,414 268,858 237,574 228,821 227,498 373,611 297,262 221,266
threshold=1,5000000000000002 4095,5000000000005 272,00000000000006 43488,000000000007 274,00000000000006 44157,500000000007 11,450000000000001 272,00000000000006 1389,5000000000002 264,00000000000006 1,0000000180025095e-35 13,850000000000003 272,00000000000006 1,0000000180025095e-35 52630,500000000007 1,0000000180025095e-35 1,5000000000000002 28,500000000000004 18030,000000000004 272,00000000000006 264,00000000000006 360,50000000000006 7964,0000000000009 1,0000000180025095e-35 114471,50000000001 18073,500000000004 1,0000000180025095e-35 1,5000000000000002 274,00000000000006
decision_type=2 2 2 2 2 2 2 2 2 2 2 2 2 2 2 2 2 2 2 2 2 2 2 2 2 2 2 2 2
left_child=1 6 9 17 8 -5 -1 -7 13 23 12 -6 20 24 16 21 28 18 19 -2 -8 -13 -19 -3 -4 -10 -27 -28 -9
right_child=3 2 4 5 11 7 10 14 25 -11 -12 15 -14 -15 -16 -17 -18 22 -20 -21 -22 -23 -24 -25 -26 26 27 -29 -30
leaf_value=-0,0331804578362698 -0,035721840406177478 0,022226682101383247 -0,01503717408227062 0,017275362571927352 -0,0042078005386454887 -0,031088176168904365 0,0016747533804747897 -0,0037332224833940817 0,01690350603061876 -0,019199195274199124 -0,0495131375672467 0,017581564799140487 -0,0009420378162585891 0,023690517754140324 -0,022047660107104669 0,017347852742473923 0,0029412042927954964 -0,0040120391768173483 -0,035112060067485094 -0,013979029915644573 -0,032403926100576616 0,0057003794260874277 -0,026897789641575954 -0,0014987263383795413 0,012742193497032534 0,044734811914559434 0,02792055236300249 -0,029136583551570908 -0,018200625644803788
leaf_count=18081 16084 6203 3081 13061 28545 20351 4069 20524 12520 27214 3179 26254 63041 45608 18654 66569 27123 9586 60642 23973 8391 93477 11108 13264 82696 16191 37477 938 21886
internal_value=0 0,16471 0,246133 -0,377441 0,293407 -0,199346 -0,222656 -0,264824 0,406758 -0,172784 -0,121812 0,1889 -0,0857236 0,317832 -0,18282 0,230736 -0,11366 -0,556007 -0,603426 -0,45374 -0,424977 0,166062 -0,325737 0,121313 0,234875 0,581902 0,637974 0,530399 -0,22394
internal_count=799790 556798 460037 242992 413356 121599 96761 108538 198511 46681 78680 214845 75501 131385 88187 186300 69533 121393 100699 40057 12460 119731 20694 19467 85777 67126 54606 38415 42410
shrinkage=0.05


Tree=6
num_leaves=30
num_cat=0
split_feature=59 4 59 83 50 26 80 4 4 4 4 19 30 37 71 4 84 71 17 1 31 69 67 84 4 37 71 26 84
split_gain=21584,8 7631,1 5518,14 3224,18 2307,81 1587,42 1300,27 1212,96 1066,77 878,867 783,763 758,416 583,018 563,39 545,468 507,131 423,828 438,262 415,242 404,789 390,967 386,17 374,893 327,546 322,212 320,075 318,523 288,235 263,967
threshold=1,5000000000000002 43488,000000000007 2,5000000000000004 17373,500000000004 1,0000000180025095e-35 114471,50000000001 15050,000000000002 53467,500000000007 53467,500000000007 53388,000000000007 41858,500000000007 1,5000000000000002 10,850000000000003 124,00000000000001 1,0000000180025095e-35 43858,500000000007 541,50000000000011 1,5000000000000002 1,0000000180025095e-35 7,5000000000000009 1355,0000000000002 1,5000000000000002 1,0000000180025095e-35 17118,000000000004 53388,000000000007 127,00000000000001 1,0000000180025095e-35 30546,500000000004 18073,500000000004
decision_type=2 2 2 2 2 2 2 2 2 2 2 2 2 2 2 2 2 2 2 2 2 2 2 2 2 2 2 2 2
left_child=1 11 6 4 5 20 -2 9 12 -7 -8 13 -6 -1 23 -4 17 -16 24 -9 -3 -18 28 -11 -14 -15 -26 -22 -12
right_child=2 3 15 -5 8 7 10 19 -10 14 22 -13 18 25 16 -17 21 -19 -20 -21 27 -23 -24 -25 26 -27 -28 -29 -30
leaf_value=-0,03723783159905894 0,020883315275730351 -0,037750155758833101 -0,022399669096062572 -0,034792933329270977 -0,020408846602834822 -0,012995339302764992 0,029466520558552051 -0,026078492958365781 -0,020960936461876918 -0,022684255540022468 0,05122560294320077 0,00034292841091284861 0,0010105958392934925 -0,0066762155868681818 0,025481074579483644 0,0092125587158185303 -0,0064447402484273915 0,00063598810765489204 -0,014132475880456803 0,057311957093648537 -0,010709963439271684 0,0060993329117474447 0,024421086008105528 0,010862848062903314 0,023414602867632764 -0,033029725510045876 0,011967760997253029 -0,033089013707309288 0,064893030353751796
leaf_count=82921 12712 13414 6236 29424 5808 50970 10259 24350 11339 3056 20757 7018 19571 10706 10746 27694 113169 21002 5874 598 20578 31380 2997 62164 32260 8145 99401 8046 47195
internal_value=0 -0,142872 0,758815 -0,0492367 -0,013743 -0,105414 1,01208 -0,0570861 0,1753 -0,0210134 1,10685 -0,629374 0,21656 -0,673462 0,0293676 0,0681895 -0,0284594 0,180922 0,239508 -0,481501 -0,471674 -0,0744351 1,18292 0,185788 0,259781 -0,360942 0,295401 -0,339677 1,21402
internal_count=799790 671940 127850 563150 533726 359473 93920 317435 174253 292487 81208 108790 162914 101772 241517 33930 176297 31748 157106 24948 42038 144549 70949 65220 151232 18851 131661 28624 67952
shrinkage=0.05


Tree=7
num_leaves=30
num_cat=0
split_feature=59 4 59 86 26 86 4 4 93 23 80 4 30 37 30 46 86 4 26 87 4 17 36 80 86 86 92 4 26
split_gain=19582,2 6911,68 5050,71 2890,52 1968 1206,18 1072,1 1089,2 768,679 759,744 733,15 728,053 610,682 537,493 487,943 508,315 471,006 459,093 445,762 366,245 293,472 427,84 272,864 234,161 229,071 219,034 218,25 205,393 199,857
threshold=1,5000000000000002 43488,000000000007 2,5000000000000004 272,00000000000006 114471,50000000001 272,00000000000006 53467,500000000007 53388,000000000007 24159,000000000004 3,5000000000000004 14650,000000000002 43197,500000000007 13,850000000000003 124,00000000000001 10,850000000000003 1,0000000180025095e-35 274,00000000000006 43488,000000000007 457771,50000000006 1397,5000000000002 53467,500000000007 1,0000000180025095e-35 29,500000000000004 15150,000000000002 272,00000000000006 274,00000000000006 16716,500000000004 7964,0000000000009 343402,00000000006
decision_type=2 2 2 2 2 2 2 2 2 2 2 2 2 2 2 2 2 2 2 2 2 2 2 2 2 2 2 2 2
left_child=1 8 5 10 14 -2 7 -6 13 18 20 -7 -11 26 -5 -16 -14 -4 -9 23 21 -3 27 -13 -19 -21 -1 -15 -12
right_child=2 3 17 4 6 11 -8 9 -10 12 28 19 16 22 15 -17 -18 24 -20 25 -22 -23 -24 -25 -26 -27 -28 -29 -30
leaf_value=-0,030688609692050908 0,019852497226802435 0,019395666344186571 -0,021949061267541325 -0,033621406082739017 -0,0082307780954840072 0,028528734457075745 -0,019615190500662506 -0,011509197994255843 0,0076235708455624626 -0,0040740573583731383 -0,03882570135731335 0,042369750728835767 0,015095897160481342 0,0052571535767873641 -0,0085938206836755036 -0,053933255939591723 0,0061104908307219857 -0,021551944776861863 0,0033642990685919267 0,070457261345193645 -0,023446460425783962 -0,01208280062276185 -0,030645890652754155 0,057352043198657415 0,011347459816429768 0,045289150601517503 -0,040957800408478365 -0,022360563120673332 -0,024444540566513868
leaf_count=46176 12734 6327 5989 14935 65254 10580 20879 32986 5181 34067 15221 18081 108601 6333 33050 2739 126492 2315 51920 22175 9627 13724 8201 26113 25626 4237 38189 4710 27328
internal_value=0 -0,135866 0,725049 -0,0468072 0,00804165 0,968881 0,0509688 0,0729773 -0,599576 0,116764 -0,422167 1,06094 0,168843 -0,637481 -0,36621 -0,239795 0,205147 0,0648058 -0,0482587 1,13618 -0,180619 -0,0427463 -0,335339 1,02402 0,172504 1,32704 -0,70678 -0,130087 -0,591733
internal_count=799790 671940 127850 563150 490923 93920 440199 419320 108790 354066 72227 81186 269160 103609 50724 35789 235093 33930 84906 70606 29678 20051 19244 44194 27941 26412 84365 11043 42549
shrinkage=0.05


Tree=8
num_leaves=30
num_cat=0
split_feature=59 5 59 29 83 4 50 86 4 4 60 5 83 26 71 55 87 17 84 86 69 8 71 26 50 50 86 84 71
split_gain=17779,5 7578,11 4631,09 2401,05 1725,2 1199,11 1183,16 1120,21 681,331 636,093 538,254 461,512 456,323 448,111 407,521 370,726 333,31 330,906 319,627 314,194 296,499 288,049 263,948 261,988 242,659 231,836 226,395 220,902 335,207
threshold=1,5000000000000002 1,5000000000000002 2,5000000000000004 4095,5000000000005 17373,500000000004 43488,000000000007 1,0000000180025095e-35 272,00000000000006 41858,500000000007 53304,500000000007 5,5000000000000009 1,5000000000000002 17373,500000000004 114471,50000000001 1,0000000180025095e-35 1,0000000180025095e-35 1410,5000000000002 1,0000000180025095e-35 18057,000000000004 272,00000000000006 1,5000000000000002 170,50000000000003 1,0000000180025095e-35 343402,00000000006 1,0000000180025095e-35 1,0000000180025095e-35 274,00000000000006 1086,0000000000002 1,5000000000000002
decision_type=2 2 2 2 2 2 2 2 2 2 2 2 2 2 2 2 2 2 2 2 2 2 2 2 2 2 2 2 2
left_child=1 3 7 10 6 21 13 -2 -9 19 12 25 23 -5 18 16 26 22 -15 -7 27 -3 -8 -1 -21 -4 -10 28 -16
right_child=2 5 11 4 -6 9 17 8 15 -11 -12 -13 -14 14 20 -17 -18 -19 -20 24 -22 -23 -24 -25 -26 -27 -28 -29 -30
leaf_value=-0,014271094243550353 0,018876988527810473 -0,033053555239322581 0,0022399479457741295 -0,020285601492142886 -0,027016255706261656 -0,027245653492783007 0,022238107972312418 0,026729280851952909 0,04172339009463271 -0,029732950483049005 -0,043795181380520874 -0,015592254394224632 -0,041479317176859716 -0,017873710484268675 0,021346620767556557 0,019511865574562883 0,065409477143594505 -0,011851240143515442 0,011138237449649511 -0,012103141519686176 0,0073631582842920533 -0,0201034798857978 0,011559605567036415 -0,0010226622218498644 0,0008965433541201055 0,022092690678318039 0,05680685284706094 -0,0049662997755715865 -0,0022047979838570896
leaf_count=52257 12734 79877 14369 9307 17265 10361 31080 10251 17433 23015 6009 9554 5149 4080 8753 2939 25478 5065 56407 51946 37769 22162 91930 20986 19886 10007 25085 98967 19669
internal_value=0 -0,129231 0,693378 0,0125672 0,0802563 -0,44891 0,109566 0,928521 1,01801 -0,299006 -0,29373 0,0616058 -0,24962 0,0251988 0,0429367 1,09013 1,12127 0,264406 0,183595 -0,216804 -0,00851628 -0,604631 0,285065 -0,209239 -0,170044 0,207757 1,01176 -0,0546826 0,100907
internal_count=799790 671940 127850 464693 380292 207247 363027 93920 81186 105208 84401 33930 78392 234952 225645 70935 67996 128075 60487 82193 165158 102039 123010 73243 71832 24376 42518 127389 28422
shrinkage=0.05


Tree=9
num_leaves=30
num_cat=0
split_feature=59 5 59 29 86 4 86 30 4 30 4 71 84 86 37 5 46 80 87 86 84 29 71 81 36 86 44 29 71
split_gain=16151,7 6859,38 4253,62 2169,51 1097,54 1092,26 1043,13 778,239 639,398 605,655 577,886 505,149 586,127 481,392 459,412 416,81 398,949 386,523 335,768 285,439 284,976 306,572 289,886 274,779 260,429 234,617 232,169 227,418 216,52
threshold=1,5000000000000002 1,5000000000000002 2,5000000000000004 4095,5000000000005 272,00000000000006 43488,000000000007 272,00000000000006 13,850000000000003 43197,500000000007 11,450000000000001 53304,500000000007 1,0000000180025095e-35 18057,000000000004 264,00000000000006 124,00000000000001 1,5000000000000002 1,0000000180025095e-35 15150,000000000002 1397,5000000000002 272,00000000000006 541,50000000000011 8191,5000000000009 1,5000000000000002 1,5000000000000002 29,500000000000004 274,00000000000006 1,0000000180025095e-35 4095,5000000000005 1,0000000180025095e-35
decision_type=2 2 2 2 2 2 2 2 2 2 2 2 2 2 2 2 2 2 2 2 2 2 2 2 2 2 2 2 2
left_child=1 3 6 9 13 14 -2 -6 -8 -1 19 12 -9 26 28 27 23 -14 -10 -7 22 -22 -13 -11 -16 -21 -5 -4 -3
right_child=2 5 15 4 7 10 8 11 18 16 -12 20 17 -15 24 -17 -18 -19 -20 25 21 -23 -24 -25 -26 -27 -28 -29 -30
leaf_value=-0,031343534546323236 0,017951969328926034 -0,038162230925701146 -0,015152277995995667 0,013174858497743436 -0,0065843830644300291 -0,025971587044342166 0,025876266412749416 -0,015995813111298243 0,047085314151041092 -0,0054556182688046033 -0,028337122061873301 0,026971136083833835 0,023626153071942501 -0,021607357372503053 -0,0046657319317325871 -0,014824942904377515 -0,04699569246036614 0,0092198006421292389 0,06178102679264505 -0,0021697193893556333 -0,00020554799431838903 0,0080426776909357112 0,0068360429222975834 -0,023567206097229888 -0,028514068486358832 -0,013618520393001677 -0,010393558108167125 0,013614095115986402 -0,027716412120813619
leaf_count=16545 12734 34609 3164 7984 45222 10361 10580 5936 44194 54957 23015 10891 38833 22757 10911 9554 2874 36063 26412 34718 101661 81154 20955 10025 8017 37114 8836 21212 48502
internal_value=0 -0,12292 0,663504 0,0119428 0,0762769 -0,427502 0,890638 0,11281 0,977823 -0,279421 -0,284426 0,150255 0,285325 -0,2406 -0,576466 0,058563 -0,196151 0,333437 1,04966 -0,20612 0,0995212 0,0690889 0,274265 -0,164387 -0,294395 -0,161602 0,0158322 0,197479 -0,641336
internal_count=799790 671940 127850 464693 380292 207247 93920 340715 81186 84401 105208 295493 80832 39577 102039 33930 67856 74896 70606 82193 214661 182815 31846 64982 18928 71832 16820 24376 83111
shrinkage=0.05


Tree=10
num_leaves=30
num_cat=0
split_feature=59 5 59 83 29 50 80 80 30 5 30 5 46 69 55 71 5 71 87 82 13 69 50 56 26 87 50 80 80
split_gain=14678,8 6210,67 3910,54 2014,85 1736,1 1048,11 970,928 690,696 514,898 508,44 408,413 376,47 353,425 351,753 350,8 319,566 274,718 254,32 245,508 245,254 231,598 224,242 207,304 188,128 185,047 163,003 162,345 153,614 143,535
threshold=1,5000000000000002 1,5000000000000002 2,5000000000000004 17373,500000000004 4095,5000000000005 1,0000000180025095e-35 15050,000000000002 15050,000000000002 11,450000000000001 1,5000000000000002 13,850000000000003 1,5000000000000002 1,0000000180025095e-35 1,5000000000000002 1,0000000180025095e-35 1,0000000180025095e-35 2,5000000000000004 1,0000000180025095e-35 1417,5000000000002 17,500000000000004 16716,500000000004 1,5000000000000002 1,0000000180025095e-35 4,5000000000000009 244197,50000000003 42,500000000000007 1,0000000180025095e-35 15150,000000000002 15150,000000000002
decision_type=2 2 2 2 2 2 2 2 2 2 2 2 2 2 2 2 2 2 2 2 2 2 2 2 2 2 2 2 2
left_child=1 3 6 4 8 10 25 -3 -1 14 24 22 -10 20 18 19 -15 -7 23 -12 -9 -17 -4 28 -6 -2 -22 -21 -8
right_child=2 7 11 -5 5 17 9 13 12 -11 15 -13 -14 16 -16 21 -18 -19 -20 27 26 -23 -24 -25 -26 -27 -28 -29 -30
leaf_value=-0,028216222536159366 0,046367784146373527 -0,032549214629615582 0,001682541400704592 -0,028630780577504497 -0,017000154735000592 0,020070319447200068 0,042477529892231997 -0,016526821619915939 -0,0059988830314745625 0,033355519758941223 -0,015966916903794665 -0,014096432263552429 -0,044082068740828081 -0,0084370955305220728 0,016718409656697363 -0,0018236238766170408 -0,031229545525596564 0,0097147110129794673 0,062427238101595152 0,016546557083589705 -0,029935744518630576 0,0073951667783364976 0,020468781526601629 0,025317470632810802 -0,0023424600332357585 0,012674071594907594 -0,018468445499827305 0,005377722564400062 0,056469106553485915
leaf_count=15241 1664 38885 14369 22841 15832 31684 12872 60689 60922 20874 3562 9554 2662 48368 2766 112386 6036 96391 21906 26089 33207 34581 10007 3355 18988 11048 20062 23514 19435
internal_value=0 -0,116941 0,63518 0,0113507 0,041183 0,099547 0,854773 -0,407223 -0,22915 0,93965 0,0201285 0,0556749 -0,150523 -0,351789 1,0372 0,0549605 -0,218971 0,245378 1,07265 0,188179 -0,415384 0,00689174 0,187727 0,968537 -0,179996 0,341465 -0,512312 0,224699 1,01687
internal_count=799790 671940 127850 464693 441852 363027 93920 207247 78825 81208 234952 33930 63584 168362 60334 200132 54404 128075 57568 53165 113958 146967 24376 35662 34820 12712 53269 49603 32307
shrinkage=0.05


Tree=11
num_leaves=30
num_cat=0
split_feature=5 29 83 71 4 4 30 70 80 84 83 46 4 87 83 87 29 26 86 84 37 4 30 5 30 86 13 4 71
split_gain=7001,5 2651,43 1524,78 1532,07 1142,84 766,855 653,74 518 504,7 619,789 498,981 414,178 406,933 368,223 367,77 329,38 317,997 302,022 266,857 476,052 333,792 253,036 235,218 244,492 224,749 222,626 214,588 203,856 197,375
threshold=1,5000000000000002 4095,5000000000005 17373,500000000004 1,0000000180025095e-35 43488,000000000007 44157,500000000007 11,450000000000001 1,5000000000000002 15150,000000000002 18066,000000000004 15681,000000000002 1,0000000180025095e-35 53304,500000000007 425,50000000000006 17373,500000000004 1417,5000000000002 8191,5000000000009 381556,50000000006 272,00000000000006 18016,500000000004 124,00000000000001 45725,000000000007 12,950000000000001 2,5000000000000004 15,450000000000001 272,00000000000006 16716,500000000004 7964,0000000000009 1,0000000180025095e-35
decision_type=2 2 2 2 2 2 2 2 2 2 2 2 2 2 2 2 2 2 2 2 2 2 2 2 2 2 2 2 2
left_child=1 6 3 8 18 -6 -1 16 9 25 12 14 21 -10 -8 -11 17 -5 -2 -20 26 -7 -23 28 -18 -3 -21 -22 -24
right_child=4 2 -4 7 5 10 11 -9 13 15 -12 -13 -14 -15 -16 -17 24 -19 19 20 27 22 23 -25 -26 -27 -28 -29 -30
leaf_value=-0,02637779643324057 -0,03091040887627183 -0,0066842106395890045 -0,017181942411676403 -0,0051470765190545663 0,015699276042235914 -0,033458931892191311 -0,0017586646576104896 0,01435991145603541 0,026198067323711223 0,024771769919755486 -0,023652740460594422 -0,041354023317080213 -0,020405129812706105 0,007890317001838152 -0,031074743225811038 0,041689862008896121 0,00026656781611110149 0,0048746174975953117 -0,0076876279932227391 -0,020072645049433818 0,0028345825097556851 -0,019502516876697497 0,010186533212790665 -0,035464958958642691 0,011311526736397425 0,017427953880759704 -0,032533979984971165 -0,022086565726904959 -0,0026633076126446388
leaf_count=18081 23745 5031 20982 46040 13061 2688 70839 72965 15519 26046 22263 3179 17659 39964 4662 22137 23990 88890 27524 26405 6936 6955 17319 1893 81783 16690 30432 6351 39761
internal_value=0 0,124363 0,188031 0,213294 -0,285829 -0,148152 -0,178815 0,138583 0,402517 0,517625 -0,203471 -0,100182 -0,134379 0,259587 -0,0708923 0,647315 0,0937217 0,0290359 -0,424882 -0,378405 -0,466908 -0,064662 -0,0400333 0,00111882 0,176094 0,236379 -0,534761 -0,180511 0,0246713
internal_count=799790 556798 460037 439055 242992 121599 96761 313668 125387 69904 108538 78680 86275 55483 75501 48183 240703 134930 121393 97648 70124 68616 65928 58973 105773 21721 56837 13287 57080
shrinkage=0.05


Tree=12
num_leaves=30
num_cat=0
split_feature=86 55 86 84 71 87 80 87 30 46 71 71 84 87 30 46 71 71 84 1 6 26 30 6 1 1 23 87 84
split_gain=3474,76 1623,24 1328,27 613,151 709,184 499,809 458,512 438,76 331,317 310,918 298,185 363,252 297,249 276,696 266,984 225,593 203,176 202,207 185,939 184,369 184,249 181,943 178,757 182,11 165,333 164,46 159,416 157,332 511,644
threshold=272,00000000000006 1,0000000180025095e-35 274,00000000000006 18073,500000000004 1,0000000180025095e-35 1470,0000000000002 14650,000000000002 950,50000000000011 11,450000000000001 1,0000000180025095e-35 1,0000000180025095e-35 1,5000000000000002 209,50000000000003 230,50000000000003 13,450000000000001 1,0000000180025095e-35 1,5000000000000002 1,0000000180025095e-35 1,0000000180025095e-35 6,0000000000000009 1,5000000000000002 343402,00000000006 12,750000000000002 1,5000000000000002 6,0000000000000009 6,0000000000000009 3,5000000000000004 570,50000000000011 18016,500000000004
decision_type=2 2 2 2 2 2 2 2 2 2 2 2 2 2 2 2 2 2 2 2 2 2 2 2 2 2 2 2 2
left_child=6 2 3 13 5 19 10 15 -3 25 -1 -12 16 -2 -14 22 17 -9 -15 -5 27 -8 -4 24 -24 -6 -16 -20 -29
right_child=1 8 7 4 9 -7 21 12 -10 -11 11 -13 14 18 26 -17 -18 -19 20 -21 -22 -23 23 -25 -26 -27 -28 28 -30
leaf_value=-0,028000968702723197 -0,015000107667031566 -0,027518582389604147 -0,0076301506979298828 -0,024455789130802524 -0,016784620068953017 0,031689387063629317 -0,030600297212977551 -0,010306599234433713 -0,0092779433384050335 -0,0459518612483849 0,010607208966350727 -0,01152351952609881 -0,016861092993384032 0,015013206377319906 -0,010768036449792788 -0,033637146700267177 -0,00033351311735208987 0,033476888159660122 0,0077404661757763298 0,015169704591478157 -0,022447183937284731 -0,018788159425461831 -0,014957723605032565 -0,017039751902118198 0,0055639738005551073 0,0088404633073758208 -0,0019683415580355741 0,006924722730732003 -0,015277300849413644
leaf_count=7578 7589 13063 13427 1239 2627 27392 20101 1386 47089 1115 9893 31034 18718 15736 26859 1705 9098 4672 53047 41650 2773 40016 4134 3909 149709 103110 92740 32854 15527
internal_value=0 0,0526021 0,0827928 0,178767 0,255919 0,415234 -0,336184 -0,00628799 -0,263276 0,153184 -0,190447 -0,122715 -0,0845038 0,0725008 -0,1138 0,0633315 0,182893 0,468956 0,0961134 0,280608 0,0653253 -0,454561 0,0705209 0,0894976 0,100375 0,164192 -0,0788573 0,0792628 -0,00394878
internal_count=799790 691168 631016 304659 177133 70281 108622 326357 60152 106852 48505 40927 153473 127526 138317 172884 15156 6058 119937 42889 104201 60117 171179 157752 153843 105737 119599 101428 48381
shrinkage=0.05


Tree=13
num_leaves=30
num_cat=0
split_feature=59 5 59 50 83 4 30 4 4 46 4 51 60 55 5 84 17 30 71 71 71 84 46 69 4 4 4 4 83
split_gain=13121,8 5033,44 3565,95 1648,49 1094,08 897,84 842,579 822,077 686,223 652,755 441,177 351,627 333,976 332,32 298,039 278,945 271,053 265,7 255,798 255,704 218,757 209,452 204,936 197,448 194,888 287,594 183,65 205,118 225,685
threshold=1,5000000000000002 1,5000000000000002 2,5000000000000004 1,0000000180025095e-35 17373,500000000004 41579,500000000007 11,450000000000001 43197,500000000007 53650,500000000007 1,0000000180025095e-35 47244,000000000007 1,5000000000000002 5,5000000000000009 1,0000000180025095e-35 1,5000000000000002 18073,500000000004 1,0000000180025095e-35 1,0000000180025095e-35 1,0000000180025095e-35 1,0000000180025095e-35 5,5000000000000009 17118,000000000004 1,5000000000000002 1,5000000000000002 59769,000000000007 63572,500000000007 63572,500000000007 62767,000000000007 12489,500000000002
decision_type=2 2 2 2 2 2 2 2 2 2 2 2 2 2 2 2 2 2 2 2 2 2 2 2 2 2 2 2 2
left_child=1 3 7 4 6 19 17 -2 13 11 -7 -8 16 15 -4 -9 24 -1 21 -3 -17 -13 -11 -12 -5 -26 27 28 -20
right_child=2 5 14 12 -6 10 9 8 -10 22 23 18 -14 -15 -16 20 -18 -19 26 -21 -22 -23 -24 -25 25 -27 -28 -29 -30
leaf_value=0,010623647527304395 0,018138399190337759 -0,031953631245550167 0,0084372200983330644 0,011061722629941673 -0,02630233415037327 -0,0066538057411880906 0,0079780640693373327 0,040755622089980556 0,014183127052052678 -0,049019320375413011 -0,024766943821453953 -0,022421868256528959 -0,03106033992217512 0,017018445410238572 -0,012486315665236449 0,055616087465510979 -0,011720681222291076 -0,029016973264817111 -0,0048259977115122088 -0,021417586914238049 0,008359053206104923 0,0052259788238937207 0,031032355838591305 -0,011632638178348722 -0,022206068555476674 0,055686229588266883 0,051009354288342294 -0,019986266049623686 0,0056526161214344702
leaf_count=1926 13720 39790 24376 136453 20791 60451 42405 24510 6820 3709 29218 2893 2117 3373 9554 44407 5774 14887 141864 58483 1090 54978 354 19305 3457 552 611 7783 24139
internal_value=0 -0,110364 0,604289 0,00513334 -0,0767458 -0,372523 -0,0457412 0,816437 0,898937 -0,0197689 -0,247307 -0,00822962 0,179601 0,958948 0,0511701 0,990675 0,190916 -0,487308 -0,0388587 -0,513561 1,08932 0,0767796 -0,835012 -0,390721 0,20845 -0,228262 -0,0770913 -0,0809405 -0,0660907
internal_count=799790 671940 127850 464693 316340 207247 295549 93920 80200 278736 108974 274673 148353 73380 33930 70007 146236 16813 232268 98273 45497 57871 4063 48523 140462 4009 174397 173786 166003
shrinkage=0.05


Tree=14
num_leaves=30
num_cat=0
split_feature=59 5 59 29 4 86 86 30 4 4 37 60 86 86 71 84 87 4 81 46 36 86 86 44 13 29 86 69 51
split_gain=11933,6 4557,92 3285,02 1414,63 823,07 781,483 739,685 583,569 491,497 440,365 393,836 390,419 345,105 342,716 298,042 317,642 296,789 270,352 266,043 236,669 232,171 212,932 207,869 203,389 187,066 183,511 183,134 179,53 178,945
threshold=1,5000000000000002 1,5000000000000002 2,5000000000000004 4095,5000000000005 43488,000000000007 272,00000000000006 272,00000000000006 13,850000000000003 41858,500000000007 47244,000000000007 124,00000000000001 5,5000000000000009 274,00000000000006 264,00000000000006 1,0000000180025095e-35 18057,000000000004 1397,5000000000002 43488,000000000007 1,5000000000000002 1,0000000180025095e-35 29,500000000000004 274,00000000000006 274,00000000000006 1,0000000180025095e-35 16716,500000000004 4095,5000000000005 274,00000000000006 1,5000000000000002 11,500000000000002
decision_type=2 2 2 2 2 2 2 2 2 2 2 2 2 2 2 2 2 2 2 2 2 2 2 2 2 2 2 2 2
left_child=1 3 5 11 10 -2 13 -8 -7 -6 24 18 14 23 15 -9 22 -4 19 26 -12 -18 -10 -5 -3 -19 -1 -11 -14
right_child=2 4 17 6 9 8 7 12 16 27 20 -13 28 -15 -16 -17 21 25 -20 -21 -22 -23 -24 -25 -26 -27 -28 -29 -30
leaf_value=-0,00081364675127223595 0,016241989436098302 -0,022875229211505799 -0,017000593360962105 0,012189594656252831 -0,0055385289697059631 0,022556931032144595 -0,0062541231138801947 -0,014661453659211865 0,032783440816902883 -0,023600892176665663 -0,0016731901720975874 -0,036744186017540016 0,0043156056708593812 -0,018355956132125959 0,0065645466761166289 0,019177494236335038 0,059722420890270404 -0,015147495429655206 -0,02340243829820253 -0,0380822090342543 -0,024297456711643479 0,034130028426743425 0,047229330919327073 -0,0098830614581779368 -0,032563986631654378 0,0096068494909753756 -0,011604794670091722 -0,011064703219187524 -0,0045807411384957367
leaf_count=32825 12734 44977 5989 7984 56685 10251 45222 3004 18179 29218 10911 6009 130233 22757 95872 38954 22251 3424 12343 2599 8017 4259 26246 8836 38134 24517 30625 19305 27430
internal_value=0 -0,104995 0,578938 0,004874 -0,354871 0,784442 0,0567898 0,0867621 0,862709 -0,230579 -0,485472 -0,231417 0,119244 -0,204239 0,192696 0,334584 0,927039 0,0486429 -0,194086 -0,143871 -0,22343 1,10803 0,824898 0,0118351 -0,546259 0,131266 -0,12043 -0,372056 0,0553487
internal_count=799790 671940 127850 464693 207247 93920 380292 340715 81186 105208 102039 84401 295493 39577 137830 41958 70935 33930 78392 66049 18928 26510 44425 16820 83111 27941 63450 48523 157663
shrinkage=0.05


Tree=15
num_leaves=30
num_cat=0
split_feature=59 5 59 26 80 4 4 4 23 80 4 37 30 67 31 26 17 26 80 5 71 5 49 68 71 82 37 29 82
split_gain=10857,3 4128,48 3028,92 1327,56 896,161 752,122 735,202 629,687 522,379 438,6 381,106 357,78 352,912 309,207 307,86 303,195 265,583 264,17 262,661 250,913 238,797 229,995 235,666 229,218 229,006 242,708 223,04 178,698 178,615
threshold=1,5000000000000002 1,5000000000000002 2,5000000000000004 114471,50000000001 15050,000000000002 41579,500000000007 43197,500000000007 53650,500000000007 3,5000000000000004 14650,000000000002 53304,500000000007 121,50000000000001 13,850000000000003 1,0000000180025095e-35 1355,0000000000002 381556,50000000006 1,5000000000000002 30546,500000000004 15150,000000000002 1,5000000000000002 5,5000000000000009 2,5000000000000004 1,0000000180025095e-35 6,5000000000000009 1,0000000180025095e-35 17,500000000000004 127,00000000000001 8191,5000000000009 13,500000000000002
decision_type=2 2 2 2 2 2 2 2 2 2 2 2 2 2 2 2 2 2 2 2 2 2 2 2 2 2 2 2 2
left_child=1 3 6 14 9 11 -2 13 15 16 21 28 -10 20 -1 -6 -5 -16 24 27 23 22 -7 -8 25 -14 -13 -4 -3
right_child=2 5 19 4 8 10 7 -9 12 -11 -12 26 18 -15 17 -17 -18 -19 -20 -21 -22 -23 -24 -25 -26 -27 -28 -29 -30
leaf_value=-0,026688758779992956 0,016236028780453628 -0,020374282070500439 5,9238832683760284e-06 0,018046949308658241 -0,010188409325031844 -0,0059246508751760775 0,048608111742226137 0,012128654036899944 -0,0034937983396996896 -0,019214251165207748 -0,022811023665607198 -0,0014589567424654721 -0,013194776081688384 0,014923347240065457 -0,0036901559860816665 0,0017350802217690744 -0,0074853639750699268 -0,023255710064292626 0,0042094707315211135 -0,011509060988520923 0,0058593544933117437 -0,03591375158598014 -0,030428618400211879 0,021321876339868772 0,007740011431087811 0,019829728284973459 -0,023918436228184448 0,017294509614408132 -0,030266964061369334
leaf_count=16886 13720 31197 13502 6021 35130 78818 64837 6820 35248 27990 23015 10744 2402 3430 22356 54828 12821 10271 131884 9554 1569 2926 4215 3544 75946 32910 7790 10874 48542
internal_value=0 -0,0998995 0,554887 0,00463056 0,0413853 -0,338128 0,754122 0,833845 0,0743762 -0,221995 -0,223553 -0,467962 0,117322 0,892639 -0,308828 -0,058337 0,0134067 -0,195658 0,144546 0,0462461 0,924225 -0,162567 -0,143118 0,94314 0,216531 0,351081 -0,215926 0,154147 -0,527855
internal_count=799790 671940 127850 464693 415180 207247 93920 80200 368348 46832 108974 98273 278390 73380 49513 89958 18842 32627 243142 33930 69950 85959 83033 68381 111258 35312 18534 24376 79739
shrinkage=0.05


Tree=16
num_leaves=30
num_cat=0
split_feature=59 5 59 50 26 86 4 30 46 4 4 80 87 30 23 17 71 50 86 86 80 50 86 86 86 80 51 4 4
split_gain=9877,64 3739,96 2792,3 1408,62 930,149 725,045 690,661 518,218 495,041 433,726 377,572 336,902 296,605 264,233 252,605 231,515 227,583 226,934 213,04 197,024 194,007 177,369 175,981 181,065 168,834 163,865 160,292 148,958 242,314
threshold=1,5000000000000002 1,5000000000000002 2,5000000000000004 1,0000000180025095e-35 312384,00000000006 272,00000000000006 43488,000000000007 11,450000000000001 1,0000000180025095e-35 41579,500000000007 47244,000000000007 15050,000000000002 1410,5000000000002 10,850000000000003 5,5000000000000009 1,0000000180025095e-35 1,0000000180025095e-35 1,0000000180025095e-35 274,00000000000006 274,00000000000006 15150,000000000002 1,0000000180025095e-35 272,00000000000006 264,00000000000006 264,00000000000006 15050,000000000002 12,500000000000002 59769,000000000007 63572,500000000007
decision_type=2 2 2 2 2 2 2 2 2 2 2 2 2 2 2 2 2 2 2 2 2 2 2 2 2 2 2 2 2
left_child=1 3 5 4 7 -2 16 -1 14 -7 21 24 20 -5 22 27 -3 -4 -14 -13 -11 -8 23 -9 -6 -12 -24 -15 -29
right_child=2 6 17 13 11 9 10 8 -10 12 25 19 18 15 -16 -17 -18 -19 -20 -21 -22 -23 26 -25 -26 -27 -28 28 -30
leaf_value=-0,027019870222790017 0,014101141735212683 -0,027985715151628093 -0,0044686398045155513 -0,013259542122818983 0,0017859313474474028 0,020685921661339125 -0,0081980372953689828 -0,00091495964929759206 -0,043550500130094726 0,029985920656803212 -0,027294037881125374 0,0064171583083729652 0,057063345301108674 0,010511276125351771 0,0070209579652279032 -0,010730603309541217 -0,018164053341723642 0,012321773449729356 0,031098167633895044 -0,00064620572410847507 0,044015100333748586 0,0046201782936237156 -0,0045234151289299529 -0,027736067201345693 -0,015630175916283195 -0,013636881541773739 -0,015514993113911319 -0,019691696630343446 0,052493185584880232
leaf_count=16523 12734 41330 20436 5664 8424 10198 42040 3642 4008 18583 12199 76039 21865 133149 12378 5660 60709 13494 4263 82890 26277 14645 70326 8607 17078 36324 16425 3335 545
internal_value=0 -0,0950565 0,531797 0,0044 -0,0713885 0,724927 -0,322207 -0,200666 -0,15379 0,802029 -0,208379 0,0204416 0,863794 0,165829 -0,129652 0,182495 -0,442569 0,0439708 1,05084 0,0544876 0,762158 -0,0974943 -0,163462 -0,391568 -0,195569 -0,339804 -0,132083 0,198957 -0,189781
internal_count=799790 671940 127850 464693 316340 93920 207247 131909 115386 81186 105208 184431 70988 148353 111378 142689 102039 33930 26128 158929 44860 56685 99000 12249 25502 48523 86751 137029 3880
shrinkage=0.05


Tree=17
num_leaves=30
num_cat=0
split_feature=59 5 59 50 30 86 4 46 86 4 86 37 86 51 55 29 50 82 4 25 86 71 4 68 36 30 46 82 4
split_gain=8988,48 3387,58 2578,04 1272,4 690,553 680,367 630,465 536,852 423,31 411,373 347,083 332,082 306,537 287,097 284,411 260,857 264,507 246,705 225,913 224,934 212,439 210,05 202,019 195,956 192,76 183,93 173,468 168,752 166,746
threshold=1,5000000000000002 1,5000000000000002 2,5000000000000004 1,0000000180025095e-35 12,750000000000002 272,00000000000006 43488,000000000007 1,0000000180025095e-35 272,00000000000006 41858,500000000007 272,00000000000006 124,00000000000001 264,00000000000006 12,500000000000002 1,0000000180025095e-35 8148,0000000000009 1,5000000000000002 13,500000000000002 43488,000000000007 1972,5000000000002 274,00000000000006 5,5000000000000009 47244,000000000007 6,5000000000000009 29,500000000000004 10,850000000000003 1,5000000000000002 10,500000000000002 62767,000000000007
decision_type=2 2 2 2 2 2 2 2 2 2 2 2 2 2 2 2 2 2 2 2 2 2 2 2 2 2 2 2 2
left_child=1 3 5 4 19 -2 11 8 12 -7 -8 27 -6 20 21 25 -17 -18 -4 -1 28 23 -12 -11 -13 -5 -9 -3 -10
right_child=2 6 18 15 7 9 10 26 13 14 22 24 -14 -15 -16 16 17 -19 -20 -21 -22 -23 -24 -25 -26 -27 -28 -29 -30
leaf_value=-0,023818218428794717 0,013415769726028322 -0,010870690736254407 -0,015707202980938702 -0,014880254762971445 0,0018845477408459975 0,019774960534615249 -0,02240225638514122 -0,044733142584308612 0,0062153382546722641 0,045516499612564092 -0,0030937708457622402 -0,00041559148657497837 -0,018130443440282661 -0,0075523623331303514 0,010632466395217951 0,01495619248414647 0,012772079789798226 -0,016939475757260163 0,0058655560932646547 -0,008738610913121829 -0,0011281807990351743 0,0052554508558764583 -0,012965346561057035 0,019306405701869905 -0,021111811113411729 0,0051325933278955705 0,030064727784125712 -0,025572125799871559 -0,017719956320877295
leaf_count=19213 12734 9154 5989 5103 11560 10251 19176 3912 90822 63031 49769 10911 23718 37799 2939 59665 5736 5519 27941 21596 104359 1587 36263 3378 8017 72330 342 73957 3019
internal_value=0 -0,0904462 0,509791 0,00417777 -0,0678832 0,697267 -0,307011 -0,0320456 -0,0213363 0,772872 -0,19826 -0,422344 -0,228661 0,00897782 0,833993 0,15766 0,245728 -0,0363292 0,0417837 -0,314013 0,039509 0,863814 -0,144552 0,882717 -0,181151 0,0770759 -0,765603 -0,478783 0,108863
internal_count=799790 671940 127850 464693 316340 93920 207247 275531 271277 81186 105208 102039 35278 235999 70935 148353 70920 11255 33930 40809 198200 67996 86032 66409 18928 77433 4254 83111 93841
shrinkage=0.05


Tree=18
num_leaves=30
num_cat=0
split_feature=59 5 59 83 50 26 84 86 29 86 87 86 84 30 27 29 50 84 50 5 5 5 83 44 26 30 86 26 35
split_gain=8180,09 3069,12 2379,42 1191,96 917,357 709,606 667,616 482,422 435,225 303,914 243,626 291,924 237,625 236,358 232,922 218,749 239,951 222,67 214,225 210,398 209,756 178,799 177,063 163,835 162,528 158,409 155,72 146,133 141,221
threshold=1,5000000000000002 1,5000000000000002 2,5000000000000004 17373,500000000004 1,0000000180025095e-35 312384,00000000006 18073,500000000004 272,00000000000006 6143,5000000000009 274,00000000000006 1458,5000000000002 274,00000000000006 2021,0000000000002 11,450000000000001 410985,00000000006 8148,0000000000009 1,5000000000000002 17418,500000000004 1,0000000180025095e-35 1,5000000000000002 1,5000000000000002 1,5000000000000002 17373,500000000004 1,0000000180025095e-35 953868,50000000012 10,850000000000003 272,00000000000006 102484,00000000001 302,50000000000006
decision_type=2 2 2 2 2 2 2 2 2 2 2 2 2 2 2 2 2 2 2 2 2 2 2 2 2 2 2 2 2
left_child=1 3 6 4 5 8 12 -3 13 18 19 -12 26 -1 28 25 -17 23 -9 -8 22 -14 27 -18 -16 -6 -2 -4 -7
right_child=2 7 20 -5 15 14 10 9 -10 -11 11 -13 21 -15 24 16 17 -19 -20 -21 -22 -23 -24 -25 -26 -27 -28 -29 -30
leaf_value=-0,023753099568113726 0,018811237083604822 -0,024985593658074751 -0,017752067054604189 -0,022523911360559142 -0,013506991231133261 0,011164187959048727 0,041036281769998045 -0,011399853967382309 0,001256718082116788 -0,01643995715444635 0,056751456743780876 0,018256892210613312 0,021647779053464513 -0,0093856747903149629 -0,0038889524437239545 0,014453069487233886 0,027922471961756998 -0,015932511522318591 -0,00020102061293069946 0,021357554869577782 -0,010666146494086121 -0,00047881712498923585 -0,030632385948272153 -0,0062832865411113787 0,0040627593481520714 0,0053069017390260315 0,037623095863431294 0,011261147600103863 0,0018184639421015361
leaf_count=14471 6787 39060 1900 22841 4981 36123 25519 54668 37480 87789 17710 2584 13723 71053 63056 59103 3110 5501 25730 7816 9554 5377 1199 2586 43809 71022 14404 21277 29557
internal_value=0 -0,0860615 0,488744 0,0039675 0,0267836 -0,037608 0,670676 -0,292579 -0,154678 -0,246105 0,833019 1,02779 0,47228 -0,234479 0,0451624 0,156934 0,237808 -0,0313949 -0,156315 0,723295 0,0397178 0,304559 0,13842 0,247294 -0,0126067 0,0822796 0,624162 0,17744 0,139147
internal_count=799790 671940 127850 464693 441852 295549 93920 207247 123004 168187 53629 20294 40291 85524 172545 146303 70300 11197 80398 33335 33930 19100 24376 5696 106865 76003 21191 23177 65680
shrinkage=0.05


Tree=19
num_leaves=30
num_cat=0
split_feature=5 96 83 46 4 86 86 4 83 4 4 60 86 84 83 60 86 84 37 41 94 51 4 83 5 68 51 49 4
split_gain=3538,02 1336,16 1070,48 696,144 651,212 522,643 673,573 426,648 367,073 340,747 272,078 254,626 242,898 242,764 224,757 223,814 213,554 382,962 259,79 206,977 323,466 190,225 190,083 182,237 177,885 174,856 211,109 163,497 162,029
threshold=1,5000000000000002 1,0000000180025095e-35 17373,500000000004 1,0000000180025095e-35 41579,500000000007 272,00000000000006 274,00000000000006 47244,000000000007 12489,500000000002 59769,000000000007 63572,500000000007 5,5000000000000009 264,00000000000006 1055,5000000000002 17373,500000000004 3,5000000000000004 272,00000000000006 18016,500000000004 124,00000000000001 1,0000000180025095e-35 180328,00000000003 1,5000000000000002 7964,0000000000009 17070,500000000004 2,5000000000000004 2,5000000000000004 1,0000000180025095e-35 1,0000000180025095e-35 13518,500000000002
decision_type=2 2 2 2 2 2 2 2 2 2 2 2 2 2 2 2 2 2 2 2 2 2 2 2 2 2 2 2 2
left_child=1 2 3 5 16 12 9 14 15 19 -11 -3 -1 -5 24 25 -2 -18 28 20 -7 -10 -20 -9 27 26 -8 -6 -19
right_child=4 11 -4 13 7 6 8 23 21 10 -12 -13 -14 -15 -16 -17 17 18 22 -21 -22 -23 -24 -25 -26 -27 -28 -29 -30
leaf_value=0,0039634247237892604 -0,024742399907932713 -0,0080321371227983617 -0,015295006224408943 0,0098310222538963484 0,0032846088000683723 0,0091892385968057721 -0,011502866851488963 -0,0094445661108383625 0,031379465614211219 -0,019243370593010067 0,046123075623419427 -0,030802730636076386 -0,011655804579386673 -0,041259451778450862 -0,024038416899881416 -0,011168512303422681 -0,0033097951030096953 -0,025477068617847334 0,0063520411440648869 0,011248179016664819 0,023861040003457241 0,010780388787329934 -0,018260433199587534 -0,025680834733259585 -0,033322380149943494 -0,001553606912537313 0,0066633455983525604 -0,020552878319315019 -0,014024381956199573
leaf_count=21451 23068 50891 23216 1268 61870 25249 6765 47202 6888 5201 757 5854 19212 4289 3831 10164 26528 32859 6936 134379 41481 13805 5981 8537 1487 41562 144366 3114 21579
internal_value=0 0,088974 0,122515 0,143088 -0,205472 0,151329 0,172205 -0,104761 0,0956609 0,256331 -0,220993 -0,205463 -0,0671338 -0,585741 -0,000120872 0,0695653 -0,316131 -0,273212 -0,355613 0,270656 0,364282 0,352493 -0,0986259 -0,238041 0,0271657 0,0849329 0,116841 0,0429805 -0,418565
internal_count=799790 556798 500053 476837 242992 471280 430617 126041 223550 207067 5958 56745 40663 5557 70302 202857 116951 93883 67355 201109 66730 20693 12917 55739 66471 192693 151131 64984 54438
shrinkage=0.05


Tree=20
num_leaves=30
num_cat=0
split_feature=5 55 71 84 4 83 4 69 86 83 87 83 71 87 21 4 30 30 23 4 50 50 13 49 5 71 86 86 15
split_gain=3199,05 1207,11 971,673 922,75 594,218 509,451 477,269 425,656 364,215 347,963 342,852 324,762 487,322 289,32 284,999 254,374 252,915 247,417 247,022 242,991 197,481 255,887 187,848 181,19 186,56 157,905 153,399 151,188 147,8
threshold=1,5000000000000002 1,0000000180025095e-35 1,0000000180025095e-35 18057,000000000004 43488,000000000007 17373,500000000004 44157,500000000007 1,5000000000000002 274,00000000000006 15681,000000000002 1417,5000000000002 12489,500000000002 1,5000000000000002 425,50000000000006 5076,5000000000009 53304,500000000007 11,450000000000001 15,450000000000001 2,5000000000000004 45725,000000000007 1,0000000180025095e-35 1,5000000000000002 16716,500000000004 1,0000000180025095e-35 2,5000000000000004 1,0000000180025095e-35 272,00000000000006 272,00000000000006 1,0000000180025095e-35
decision_type=2 2 2 2 2 2 2 2 2 2 2 2 2 2 2 2 2 2 2 2 2 2 2 2 2 2 2 2 2
left_child=1 2 3 -1 18 7 -6 11 10 15 28 14 -13 -10 17 19 -3 -4 -2 -8 -19 -22 27 24 25 -21 -9 -20 -5
right_child=4 16 5 8 6 -7 9 26 13 -11 -12 12 -14 -15 -16 -17 -18 20 22 23 21 -23 -24 -25 -26 -27 -28 -29 -30
leaf_value=-0,010582678746749218 -0,021959088738503788 -0,022074532933821018 -0,0042179907442782836 -0,016225853129436901 0,013640976259058281 -0,014927629123681868 -0,031114988519445025 -0,0014419834224038604 0,022058255665463228 -0,018388874855253142 0,031949229652821633 0,022909666240501697 0,00038862465613582597 0,0054149736305037482 -0,031413742419535227 -0,015061555202514537 -0,0060517566207879594 0,00022953213980250162 -0,018221591484126828 0,010098942279185475 0,010369537643168995 -0,010559390811395279 -0,016778807492833395 -0,023020145726476093 -0,029679189273729024 -0,0012281637770055148 0,011584970086391113 -0,0038147049778394881 0,017286008963909954
leaf_count=14924 36478 13773 69262 1389 13061 15652 2688 10438 15162 22263 23496 17560 22266 38539 3017 17659 42971 92377 10137 17780 49051 6719 41738 3391 1963 42794 77497 33040 42705
internal_value=0 0,0846241 0,116521 0,26475 -0,195599 0,0624901 -0,0958479 0,0783601 0,324513 -0,139724 0,426676 0,0374161 0,205343 0,200715 0,00709238 -0,0818572 -0,195405 0,0153957 -0,297742 -0,0267225 0,0619074 0,156645 -0,237131 -0,00244736 0,0220529 0,0418221 0,200423 -0,142531 0,324322
internal_count=799790 556798 500054 136215 242992 363839 121599 348187 121291 108538 67590 260252 39826 53701 220426 86275 56744 217409 121393 68616 148147 55770 84915 65928 62537 60574 87935 43177 44094
shrinkage=0.05


Tree=21
num_leaves=30
num_cat=0
split_feature=59 59 4 83 4 26 84 1 18 51 71 55 37 4 84 79 24 26 27 83 71 84 71 80 86 4 37 4 4
split_gain=7357,45 2184,37 2069,63 1203,95 777,151 749,34 585,196 503,542 390,104 370,951 349,204 304,906 299,261 244,245 232,648 219,957 220,16 214,606 323,605 251,032 339,05 213,962 202,441 186,875 179,903 169,843 155,099 146,003 155,974
threshold=1,5000000000000002 2,5000000000000004 43488,000000000007 17373,500000000004 53747,000000000007 114471,50000000001 18073,500000000004 7,5000000000000009 333,50000000000006 12,500000000000002 1,0000000180025095e-35 1,0000000180025095e-35 124,00000000000001 11283,000000000002 273,50000000000006 1077,0000000000002 1,0000000180025095e-35 953867,50000000012 872980,50000000012 12489,500000000002 1,5000000000000002 2021,0000000000002 5,5000000000000009 15150,000000000002 272,00000000000006 9508,5000000000018 127,00000000000001 43858,500000000007 53467,500000000007
decision_type=2 2 2 2 2 2 2 2 2 2 2 2 2 2 2 2 2 2 2 2 2 2 2 2 2 2 2 2 2
left_child=2 6 8 4 5 15 21 -6 12 10 14 13 -1 -8 -7 16 -4 19 -19 -12 -21 -2 -15 -16 -3 26 -14 -23 -29
right_child=1 24 3 -5 7 9 11 -9 -10 -11 17 -13 25 22 23 -17 -18 18 -20 20 -22 27 -24 -25 -26 -27 -28 28 -30
leaf_value=-0,021214040740314185 0,030129234613777922 -0,021468459495393492 0,012841372003998179 -0,021863765779126985 -0,016709738033939735 -0,010574720606447112 0,0097387123368755327 0,053907031716713009 0,0097021141634368365 -0,0053334191355678268 -0,0021291521699700697 -0,0026136232168364124 0,010933426446155164 0,044438045796685616 0,013475789541308342 -0,0023692662828322009 -0,018314286743622992 0,013021454695472352 -4,4009647181202338e-05 0,021288172066247061 -0,00036333328844756572 -0,0043036794268454751 -0,00014049438208137198 0,0045701322913886799 0,004134971376810884 -0,01622155157183491 -0,018783686076584979 0,023871092417212456 -0,0040029852959837095
leaf_count=84357 21191 3070 2471 29424 36566 6377 2360 1056 5189 63155 168602 1708 6549 48374 50822 19391 31097 33678 44125 11621 19721 3322 1187 45044 30860 10192 2503 13287 2491
internal_value=0 0,466701 -0,081487 -0,0331926 -0,0117136 0,00920122 0,64324 -0,293823 -0,342131 0,0359118 0,0596059 0,797741 -0,370438 0,82996 0,160331 -0,219581 -0,319222 0,0227853 0,112255 -0,0120024 0,153341 0,457531 0,865808 0,185154 0,0365762 -0,142776 0,0574537 0,298279 0,384317
internal_count=799790 127850 671940 563150 533726 496104 93920 37622 108790 443145 379990 53629 103601 51921 102243 52959 33568 277747 77803 199944 31342 40291 49561 95866 33930 19244 9052 19100 15778
shrinkage=0.05


Tree=22
num_leaves=30
num_cat=0
split_feature=59 5 59 83 26 84 23 86 55 86 64 60 46 26 5 84 86 86 29 83 79 25 5 86 5 70 25 32 12
split_gain=6694,63 2109,98 2015,93 827,253 655,998 556,246 441,51 380,062 284,524 272,058 222,693 211,212 243,536 201,401 200,855 196,332 172,711 197,61 166,631 153,9 153,595 147,097 146,302 135,726 135,051 121,36 119,59 112,846 131,731
threshold=1,5000000000000002 1,5000000000000002 2,5000000000000004 17373,500000000004 114471,50000000001 18073,500000000004 2,5000000000000004 272,00000000000006 1,0000000180025095e-35 274,00000000000006 1,5000000000000002 5,5000000000000009 1,0000000180025095e-35 457771,50000000006 1,5000000000000002 2021,0000000000002 272,00000000000006 274,00000000000006 4095,5000000000005 17373,500000000004 609,50000000000011 88,000000000000014 1,5000000000000002 272,00000000000006 1,5000000000000002 1,5000000000000002 2585,5000000000005 1153,5000000000002 42,500000000000007
decision_type=2 2 2 2 2 2 2 2 2 2 2 2 2 2 2 2 2 2 2 2 2 2 2 2 2 2 2 2 2
left_child=1 3 5 4 11 15 13 -3 14 19 16 12 20 -6 -7 23 -8 -18 -4 -9 21 -1 -20 -2 -17 -11 -19 -12 -29
right_child=2 7 18 -5 6 8 10 9 -10 25 27 -13 -14 -15 -16 24 17 26 22 -21 -22 -23 -24 -25 -26 -27 -28 28 -30
leaf_value=0,012884504261932567 0,017288953110298818 -0,021783792255239971 -0,017429620239796408 -0,019213293510010637 -0,0094236353119839522 0,044030177051043375 -0,0036518783114043783 -0,0051974403632439334 -0,0024815416478054068 -0,016929868644078024 0,00065229723550483995 -0,028651491639916857 -0,036756623717107993 -9,4203767526207039e-05 0,027911874534443389 0,019879557440101812 0,009606654917224117 0,00026296840607040325 0,0088336805156814923 -0,026475320003738118 0,0015661851667273759 -0,014431372929363445 -0,0066977029596169751 0,034954570918221579 0,00062657017155099944 -0,0087657992476403938 0,0067098283529482706 0,011518828519788658 -0,016423549721986227
leaf_count=2216 6787 39060 4032 22841 38265 40538 19329 76634 1708 60431 52893 6185 3115 59802 11383 13723 98866 57758 21212 3764 16117 18965 8686 14404 5377 27358 57869 2127 8345
internal_value=0 -0,0775255 0,447348 -0,00294225 0,0159892 0,618658 0,0422467 -0,249816 0,770985 -0,208594 0,0808493 -0,21285 -0,160667 -0,0745361 0,802651 0,437467 0,109509 0,125852 0,0347585 -0,123394 -0,117476 -0,230547 0,0867031 0,577084 0,284696 -0,28724 0,0697401 -0,0247182 -0,214857
internal_count=799790 671940 127850 464693 441852 93920 395254 207247 53629 168187 297187 46598 40413 98067 51921 40291 233822 214493 33930 80398 37298 21181 29898 21191 19100 87789 115627 63365 10472
shrinkage=0.05


Tree=23
num_leaves=30
num_cat=0
split_feature=59 5 59 50 84 29 86 55 69 86 17 60 50 5 81 50 23 29 81 84 60 28 84 50 59 50 84 80 69
split_gain=6092,46 1910,69 1859,95 917,05 528,051 448,622 348,213 265,524 259,438 247,046 200,294 197,537 196,69 194,759 187,486 186,103 177,838 175,743 150,19 142,425 139,88 138,637 125,131 182,61 131,873 124,199 121,215 120,332 116,598
threshold=1,5000000000000002 1,5000000000000002 2,5000000000000004 1,0000000180025095e-35 18073,500000000004 4095,5000000000005 272,00000000000006 1,0000000180025095e-35 1,5000000000000002 274,00000000000006 1,0000000180025095e-35 3,5000000000000004 1,0000000180025095e-35 1,5000000000000002 1,5000000000000002 1,0000000180025095e-35 3,5000000000000004 8148,0000000000009 1,5000000000000002 18016,500000000004 5,5000000000000009 1,0000000180025095e-35 541,50000000000011 1,5000000000000002 1,0000000180025095e-35 1,5000000000000002 2021,0000000000002 15250,000000000002 1,5000000000000002
decision_type=2 2 2 2 2 2 2 2 2 2 2 2 2 2 2 2 2 2 2 2 2 2 2 2 2 2 2 2 2
left_child=1 3 4 5 14 18 -3 13 11 12 17 16 -8 -6 26 -4 -7 20 19 -1 22 -19 25 -24 -25 -5 -2 -12 -11
right_child=2 6 15 10 7 8 9 -9 -10 28 27 -13 -14 -15 -16 -17 -18 21 -20 -21 -22 -23 23 24 -26 -27 -28 -29 -30
leaf_value=-0,00034413295902621134 0,031165629552259922 -0,020823904659195359 -0,0043964281351614766 0,0024168779532279683 0,042708153265613669 -0,0079512093495411346 -0,0093174757035508673 -0,0023562095407395085 0,004948971735556161 -0,01622558824673211 -0,022979771607257313 -0,016767655064855794 0,0014528623172113933 0,026746385693135651 0,0090559760735480967 0,010851968582891317 -0,00055532744855713858 0,0095717418605844352 -0,02138305458836965 -0,011803574184450251 -0,024929418905067141 0,027146495756629613 0,0045364212437100683 -0,040797026871583736 -0,0053639074648334515 0,026676807873889825 0,017612037360210022 0,0065058556982868533 -0,0082411106387313467
leaf_count=15632 17055 39060 20436 3866 40538 42445 54668 1708 53180 60098 3652 9990 25730 11383 10014 13494 144977 63404 11589 38527 1797 4937 58232 1432 4036 4750 13222 2247 27691
internal_value=0 -0,0737545 0,428871 -0,00280124 0,595066 -0,0641225 -0,237967 0,745146 -0,0256884 -0,198542 0,127797 -0,0592471 -0,117345 0,776272 0,418374 0,0330494 -0,0446043 0,142913 -0,213919 -0,169756 0,0750992 0,2167 0,0884216 0,057648 -0,292752 0,315754 0,504779 -0,234374 -0,273616
internal_count=799790 671940 127850 464693 93920 316340 207247 53629 250592 168187 148353 197412 80398 51921 40291 33930 187422 142454 65748 54159 74113 68341 72316 63700 5468 8616 30277 5899 87789
shrinkage=0.05


Tree=24
num_leaves=30
num_cat=0
split_feature=59 5 59 30 4 86 4 4 87 23 37 4 26 86 86 71 82 86 84 6 71 37 70 51 84 46 17 29 87
split_gain=5542,98 1730,24 1716,39 662,015 527,267 468,638 455,716 430,472 302,64 299,365 254,06 221,846 212,811 197,642 194,805 193,401 246,214 193,312 189,229 182,803 175,03 171,434 170,387 166,465 164,727 163,547 160,689 160,491 159,361
threshold=1,5000000000000002 1,5000000000000002 2,5000000000000004 13,450000000000001 13518,500000000002 272,00000000000006 53650,500000000007 41579,500000000007 1397,5000000000002 3,5000000000000004 121,50000000000001 53304,500000000007 244197,50000000003 274,00000000000006 274,00000000000006 1,0000000180025095e-35 17,500000000000004 264,00000000000006 541,50000000000011 1,5000000000000002 1,5000000000000002 127,00000000000001 1,5000000000000002 1,0000000180025095e-35 18030,000000000004 1,0000000180025095e-35 1,0000000180025095e-35 8191,5000000000009 1112,5000000000002
decision_type=2 2 2 2 2 2 2 2 2 2 2 2 2 2 2 2 2 2 2 2 2 2 2 2 2 2 2 2 2
left_child=1 3 4 12 -2 17 8 10 14 25 24 19 -1 -10 -6 16 -11 26 20 22 -17 -12 -9 28 -3 -7 -5 -25 -20
right_child=2 7 -4 5 6 9 -8 11 13 15 21 -13 -14 -15 -16 18 -18 -19 23 -21 -22 -23 -24 27 -26 -27 -28 -29 -30
leaf_value=-0,012768709627162861 0,0026724670073864092 -0,013084337756405601 0,0015703480777481569 0,013930615396505636 0,022240823477787313 -0,0015777126471306809 0,0055796945446407783 -0,0069311699309591527 0,047898360232843079 -0,01277767279587113 0,0025191204083633806 -0,016032524209184756 -0,0022415113673289865 0,022499005220527696 0,035553507039890332 0,02188056741018355 0,010779895149181665 -0,014214511779725878 -0,002964150353615011 -0,021324371983055302 0,0047402829991925154 -0,017383990075824328 0,0027517193617521453 -0,00096862655263472541 -0,022767843840827629 -0,032840219507820914 -0,0068789756046465107 0,0056200981605769185 -0,03509951385069441
leaf_count=48592 7384 31281 33930 5477 24589 86386 6820 50527 23705 4812 10744 23015 32933 4418 27004 9330 64987 25386 4728 6289 17030 7790 29143 75328 48458 1937 11906 73558 2303
internal_value=0 -0,0701548 0,411042 -0,00266366 0,572305 0,0321533 0,623949 -0,226668 0,67365 0,0568054 -0,327174 -0,139882 -0,168803 0,869413 0,578885 0,0921392 0,182745 -0,16876 0,0579098 -0,093542 0,215338 -0,113296 -0,0674957 0,0313527 -0,379118 -0,0437253 -0,00695045 0,0456195 -0,26993
internal_count=799790 671940 127850 464693 93920 383168 86536 207247 79716 340399 98273 108974 81525 28123 51593 252076 69799 42769 182277 85959 26360 18534 79670 155917 79739 88323 17383 148886 7031
shrinkage=0.05


Tree=25
num_leaves=30
num_cat=0
split_feature=59 59 5 29 4 4 4 69 29 67 84 37 60 4 71 60 42 42 86 4 84 86 51 84 82 4 37 31 51
split_gain=5043,1 1584,25 1567,38 606,81 489,255 424,695 392,901 315,31 314,874 264,21 242,438 232,132 216,404 210,796 199,241 188,856 169,514 180,188 158,706 158,071 151,631 153,283 150,144 140,658 166,503 128,792 127,569 126,213 125,928
threshold=1,5000000000000002 2,5000000000000004 1,5000000000000002 4095,5000000000005 13518,500000000002 53650,500000000007 41579,500000000007 1,5000000000000002 6143,5000000000009 1,0000000180025095e-35 18073,500000000004 124,00000000000001 5,5000000000000009 47244,000000000007 5,5000000000000009 3,5000000000000004 146,00000000000003 160,50000000000003 272,00000000000006 9508,5000000000018 18030,000000000004 272,00000000000006 11,500000000000002 18016,500000000004 17,500000000000004 43858,500000000007 127,00000000000001 1355,0000000000002 1,0000000180025095e-35
decision_type=2 2 2 2 2 2 2 2 2 2 2 2 2 2 2 2 2 2 2 2 2 2 2 2 2 2 2 2 2
left_child=2 4 3 12 -2 9 11 8 15 10 -6 20 23 -8 -12 -5 -10 -18 -3 26 21 -4 -15 28 -25 -20 -13 -27 -1
right_child=1 18 6 7 5 -7 13 -9 16 -11 14 19 -14 22 -16 -17 17 -19 25 -21 -22 -23 -24 24 -26 27 -28 -29 -30
leaf_value=0,032754826165124838 0,0025400535469738486 -0,020425621042881835 -0,021509973911720374 -0,0024158336567642767 0,026303240944356633 0,005307664608139734 -0,002705956633734016 0,0070501686278862377 0,0069202653343594552 0,0062133331619557393 0,040408987821183739 0,011322970711633337 -0,027286200360082696 -0,0094650238030910463 -0,0060432066944901969 -0,018426984433698234 -0,034340674431169997 0,00079929819566084955 -0,010460456267994522 -0,014836567314965403 -0,021766137964693753 -0,0066035620501142464 -0,026163732157063302 -0,025217901169376441 -0,0074321687154276289 -0,012711306905553436 -0,015632371671364425 0,0092526252812892614 -0,0017548348216866929
leaf_count=1119 7384 3070 12791 138647 27963 6820 60451 83145 69615 3835 46792 6588 6009 42010 1126 7941 1499 79445 5451 9291 48534 18541 6513 6394 47987 2995 2528 22414 22892
internal_value=0 0,393927 -0,0667467 -0,00253334 0,550434 0,600795 -0,215967 0,0314413 0,000802151 0,649402 0,680685 -0,312278 -0,158709 -0,133073 0,783982 -0,0655112 0,0654907 0,00292176 0,029838 -0,106914 -0,361932 -0,249228 -0,234018 -0,131344 -0,18852 0,0731549 0,080965 0,133119 -0,00243533
internal_count=799790 127850 671940 464693 93920 86536 207247 380292 297147 79716 75881 98273 84401 108974 47918 146588 150559 80944 33930 18407 79866 31332 48523 78392 54381 30860 9116 25409 24011
shrinkage=0.05


Tree=26
num_leaves=30
num_cat=0
split_feature=59 59 83 29 26 84 69 30 87 28 15 87 42 1 42 29 55 84 26 33 83 15 37 1 83 64 41 1 93
split_gain=4589,08 1460,99 1074,41 690,709 507,16 463,682 323,012 246,099 245,745 209,525 179,354 167,855 155,455 147,93 147,342 145,521 135,874 132,664 129,811 206,207 121,746 119,217 117,428 95,3965 97,2078 92,4221 89,2687 88,9782 89,5846
threshold=1,5000000000000002 2,5000000000000004 17373,500000000004 6143,5000000000009 312384,00000000006 18073,500000000004 1,0000000180025095e-35 10,850000000000003 1458,5000000000002 1,0000000180025095e-35 1,0000000180025095e-35 370,50000000000006 146,00000000000003 6,0000000000000009 160,50000000000003 4095,5000000000005 1,0000000180025095e-35 2021,0000000000002 29821,500000000004 63128,500000000007 17070,500000000004 1,0000000180025095e-35 33,000000000000007 6,0000000000000009 15681,000000000002 1,5000000000000002 1,5000000000000002 6,0000000000000009 934,50000000000011
decision_type=2 2 2 2 2 2 2 2 2 2 2 2 2 2 2 2 2 2 2 2 2 2 2 2 2 2 2 2 2
left_child=2 5 3 4 7 10 23 -1 11 12 -2 -7 25 -8 -14 -3 -10 26 19 -9 27 -15 -23 -6 -25 -5 -12 -17 -29
right_child=1 15 -4 9 6 8 13 18 16 -11 17 -13 14 21 -16 20 -18 -19 -20 -21 -22 22 -24 24 -26 -27 -28 28 -30
leaf_value=-0,019568948014266407 0,0003915331040086628 -0,016508691052841206 -0,020539648568604223 0,0052824973690969064 -0,027997288253049125 0,042474606479160737 -0,018353926827585423 0,00089073952727330465 0,045775433180934751 0,012470982259955396 0,019270070501777394 0,023676749849779164 -0,03085066201492663 -0,0093944249436866342 -0,00073059289256945017 -0,02042506662279947 -0,018658767506482411 0,014139510093419405 -0,0095103840150039688 -0,039187643605444036 -0,01509260976690684 0,0049148408993411807 -0,00084925724235723722 -0,0051745295378459724 -0,015347832894956632 -0,0053313097265728403 0,034172506059663203 0,009403849209582581 -0,0096922350865411983
leaf_count=22804 5142 4032 36357 86328 2281 7908 4256 23427 19929 18214 8600 25427 1658 10460 128223 1230 365 16607 98803 1398 3091 68425 76331 72350 11342 9283 9942 22769 2808
internal_value=0 0,37761 -0,0634915 -0,0445576 -0,0973233 0,529375 -0,0411846 -0,192045 0,67467 0,0399266 0,363288 0,560917 0,0231363 0,0126439 -0,0224124 0,0283732 0,885457 0,419565 -0,157259 -0,0268785 0,0769791 0,022644 0,0375625 -0,141392 -0,130501 0,0850238 0,544875 0,120684 0,146188
internal_count=799790 127850 671940 635583 391877 93920 245445 146432 53629 243706 40291 33335 225492 159472 129881 33930 20294 35149 123628 24825 29898 155216 144756 85973 83692 95611 18542 26807 25577
shrinkage=0.05


Tree=27
num_leaves=30
num_cat=0
split_feature=5 29 71 84 4 4 69 80 84 71 87 69 60 46 23 87 50 50 81 13 86 86 87 4 94 49 15 4 3
split_gain=1865,53 862,184 608,989 597,422 410,251 338,352 303,051 284,503 254,346 402,652 235,368 226,262 222,766 221,431 212,739 211,741 194,466 310,225 180,705 177,369 164,343 161,548 159,341 151,062 139,631 136,336 135,452 134,717 129,342
threshold=1,5000000000000002 4095,5000000000005 1,0000000180025095e-35 18057,000000000004 43488,000000000007 44157,500000000007 1,5000000000000002 15150,000000000002 541,50000000000011 1,5000000000000002 425,50000000000006 1,5000000000000002 5,5000000000000009 1,0000000180025095e-35 2,5000000000000004 1429,5000000000002 1,0000000180025095e-35 1,5000000000000002 1,5000000000000002 16716,500000000004 274,00000000000006 272,00000000000006 1112,5000000000002 45725,000000000007 180328,00000000003 1,0000000180025095e-35 1,0000000180025095e-35 47244,000000000007 221,50000000000003
decision_type=2 2 2 2 2 2 2 2 2 2 2 2 2 2 2 2 2 2 2 2 2 2 2 2 2 2 2 2 2
left_child=1 12 3 -3 14 -6 8 15 9 -4 -9 21 18 16 -2 26 -10 24 20 -16 -1 -7 -19 -23 -18 27 -5 -25 -22
right_child=4 2 6 7 5 11 -8 10 13 -11 -12 -13 -14 -15 19 -17 17 22 -20 -21 28 23 -24 25 -26 -27 -28 -29 -30
leaf_value=0,0022058258065972679 -0,018496769599200168 -0,0084579752321023421 0,019465351720295995 -0,017641425581152888 0,012298134400425044 -0,020139177880440843 0,0082970663433991863 0,019174580040509755 -0,0025069178995726343 1,3565625480786237e-05 0,0038095335149973472 0,0005878397216913453 -0,024661935351894301 -0,040676361263797207 -0,0043634395238207569 0,027724403214827088 -0,0019885879335286329 -0,004073537154770014 -0,014968632037926786 -0,013849178379882206 -0,0078775755156515921 -0,030538442925832649 -0,033239566009178073 0,00095525543761030326 0,0093172350352356288 -0,026911681343031776 0,015455824128036311 -0,0097218016553671308 0,053696239456642696
leaf_count=39786 36478 14550 18607 1313 13061 11686 78707 14749 131871 26769 37913 42395 6415 1430 43177 20604 14790 5607 14223 41738 35980 2614 2869 24956 46733 2948 43525 23939 357
internal_value=0 0,0650001 0,101798 0,22096 -0,150818 -0,0675598 0,0554532 0,270553 0,0209063 0,158202 0,159913 -0,104648 -0,110675 -0,00972276 -0,236898 0,364415 -0,00415204 0,0819548 -0,0854659 -0,18008 -0,0464828 -0,179349 -0,27881 -0,13373 0,13225 -0,109671 0,289256 -0,0842822 -0,145444
internal_count=799790 556798 460037 132654 242992 121599 327383 118104 248676 45376 52662 108538 96761 203300 121393 65442 201870 69999 90346 84915 76123 66143 8476 54457 61523 51843 44838 48895 36337
shrinkage=0.05


Tree=28
num_leaves=30
num_cat=0
split_feature=59 59 5 83 4 30 4 4 4 4 46 71 37 55 71 84 83 70 4 84 60 71 5 51 8 29 59 49 4
split_gain=4138,83 1342,92 1276,29 586,518 443,08 430,356 408,026 328,663 255,581 426,206 252,302 221,505 215,357 210,872 211,385 201,091 193,557 182,522 177,8 176,564 173,339 154,422 152,285 144,727 143,428 152,148 143,251 142,303 136,713
threshold=1,5000000000000002 2,5000000000000004 1,5000000000000002 17373,500000000004 43197,500000000007 13,450000000000001 53650,500000000007 43488,000000000007 63572,500000000007 59769,000000000007 1,0000000180025095e-35 1,0000000180025095e-35 124,00000000000001 1,0000000180025095e-35 5,5000000000000009 273,50000000000006 17373,500000000004 1,5000000000000002 53304,500000000007 18073,500000000004 6,5000000000000009 1,0000000180025095e-35 2,5000000000000004 14,500000000000002 208,50000000000003 11128,500000000002 1,0000000180025095e-35 1,0000000180025095e-35 9508,5000000000018
decision_type=2 2 2 2 2 2 2 2 2 2 2 2 2 2 2 2 2 2 2 2 2 2 2 2 2 2 2 2 2
left_child=2 4 3 5 -2 20 13 12 9 10 11 15 21 14 19 -7 18 24 22 -6 23 -4 27 -1 25 -13 -17 -9 -14
right_child=1 -3 7 -5 6 8 -8 16 -10 -11 -12 17 28 -15 -16 26 -18 -19 -20 -21 -22 -23 -24 -25 -26 -27 -28 -29 -30
leaf_value=-0,0039361185753766887 0,0086103967666202857 0,0013028148302566067 -0,021768992725732985 -0,01629604855204253 0,02673919925153756 -0,013837117053577786 0,0047181297817184779 -0,00074431660407906592 0,046527605330221281 -0,015493259248436348 -0,025954693206181087 -0,0015871895562982901 0,0046038782994608221 0,0064859577325059106 -0,0065681658070010571 0,011514438275775835 -0,023142585788019709 0,0063810962483651914 -0,013235552033731241 0,038691790723380436 -0,035043832432617605 -0,012591837850616482 -0,027089010358519874 -0,018774775540993369 0,014013674339416507 0,0069608085098407284 0,0028153799528532271 -0,021091250152129815 -0,012758837619810715
leaf_count=66622 13720 33930 34609 22841 24031 4316 6820 71270 1316 13721 3389 169739 9116 3373 1569 53550 6592 57913 21003 44407 2339 48502 2552 7540 7080 24012 30315 3791 9812
internal_value=0 0,360599 -0,0601422 -0,0022231 0,507675 0,0136505 0,577342 -0,195269 0,0421863 0,038998 0,0525858 0,0576856 -0,280727 0,631157 0,660931 0,145336 -0,116663 0,0282231 -0,0947245 0,680941 -0,124949 -0,327681 -0,0510809 -0,108748 -0,000380602 -0,0106321 0,167414 -0,034807 -0,0850697
internal_count=799790 127850 671940 464693 93920 441852 80200 207247 365351 364035 350314 346925 102039 73380 70007 88181 105208 258744 98616 68438 76501 83111 77613 74162 200831 193751 83865 75061 18928
shrinkage=0.05


Tree=29
num_leaves=30
num_cat=0
split_feature=59 59 5 50 86 87 30 86 86 51 86 50 86 30 17 8 51 86 50 87 86 87 60 30 86 87 29 55 59
split_gain=3764,94 1238,85 1156,04 707,911 420,9 364,609 315,676 291,509 284,214 276,805 225,661 177,401 175,775 174,398 170,41 159,744 159,047 167,549 157 144,932 137,069 125,365 111,741 110,926 107,383 112,492 106,959 106,622 102,839
threshold=1,5000000000000002 2,5000000000000004 1,5000000000000002 1,0000000180025095e-35 272,00000000000006 1410,5000000000002 11,450000000000001 274,00000000000006 272,00000000000006 1,5000000000000002 274,00000000000006 1,0000000180025095e-35 274,00000000000006 1,0000000180025095e-35 1,0000000180025095e-35 106,50000000000001 12,500000000000002 272,00000000000006 1,0000000180025095e-35 371,50000000000006 264,00000000000006 42,500000000000007 5,5000000000000009 15,450000000000001 274,00000000000006 230,50000000000003 4095,5000000000005 1,0000000180025095e-35 1,0000000180025095e-35
decision_type=2 2 2 2 2 2 2 2 2 2 2 2 2 2 2 2 2 2 2 2 2 2 2 2 2 2 2 2 2
left_child=2 4 3 6 21 12 13 27 -4 15 11 -10 -6 -1 22 -8 17 20 -3 -14 -11 -2 -5 -18 25 -19 -12 -7 -27
right_child=1 18 8 14 5 7 9 -9 10 16 26 -13 19 -15 -16 -17 23 24 -20 -21 -22 -23 -24 -25 -26 28 -28 -29 -30
leaf_value=0,012300145190131492 0,033892573912759891 -0,0043227028456089391 -0,017472282945748034 0,0066642027159257477 0,015066267462855255 0,046051605435310478 0,015401376761312272 0,015039052708023205 -0,0069193863511695947 0,00040204549516132749 -0,021096915822074607 0,0033571843918089278 0,038889513797919037 -0,019729692149062481 -0,011082855322885799 0,0017051011773184706 -0,016714816129496948 -0,018913017783143415 0,0097071605526511135 0,022471397243387061 -0,014984678941798236 0,0036656889830047517 -0,018408843177009252 -0,0056853962162519093 -0,0033314660483353704 0,0053302690534238334 -0,0098422578920030045 -0,0058774225174430469 -0,0019700967852561702
leaf_count=1944 1664 20436 39060 140462 21894 23453 11570 5080 54668 8925 10152 25730 10579 16482 5899 34092 12569 2615 13494 19723 17903 11070 1992 35358 94366 47013 77637 457 33503
internal_value=0 0,345506 -0,0572182 -0,00211562 0,488173 0,554679 -0,0560952 0,774329 -0,186037 -0,0407957 -0,150391 -0,0724511 0,448647 -0,321905 0,112853 0,103548 -0,0669225 -0,0424287 0,0247545 0,56165 -0,193527 0,15042 0,126831 -0,171402 -0,0204039 0,0324624 -0,222674 0,895106 0,0458239
internal_count=799790 127850 671940 464693 93920 81186 316340 28990 207247 297914 168187 80398 52196 18426 148353 45662 252252 204325 33930 30302 26828 12734 142454 47927 177497 83131 87789 23910 80516
shrinkage=0.05


Tree=30
num_leaves=30
num_cat=0
split_feature=59 59 5 83 86 30 83 5 23 29 55 69 5 71 56 28 60 92 27 26 26 46 86 83 46 86 26 27 83
split_gain=3424,21 1141,88 1046,42 511,763 392,623 366,034 268,969 245,064 241,543 215,434 187,429 185,174 211,385 164,287 174,395 158,038 152,288 145,344 142,184 184,474 148,885 133,123 132,4 125,755 123,559 108,603 106,853 99,0307 98,0071
threshold=1,5000000000000002 2,5000000000000004 1,5000000000000002 17373,500000000004 272,00000000000006 13,450000000000001 17373,500000000004 1,5000000000000002 3,5000000000000004 4095,5000000000005 1,0000000180025095e-35 1,5000000000000002 2,5000000000000004 5,5000000000000009 3,5000000000000004 1,0000000180025095e-35 6,5000000000000009 16716,500000000004 277506,50000000006 102484,00000000001 953868,50000000012 1,0000000180025095e-35 272,00000000000006 6024,5000000000009 1,0000000180025095e-35 274,00000000000006 953868,50000000012 872980,50000000012 17373,500000000004
decision_type=2 2 2 2 2 2 2 2 2 2 2 2 2 2 2 2 2 2 2 2 2 2 2 2 2 2 2 2 2
left_child=2 4 3 5 -2 16 9 10 21 -4 13 17 -13 14 -6 18 23 -11 19 -10 -20 -7 -3 25 -24 -1 -21 -22 -9
right_child=1 22 6 -5 7 8 -8 28 15 11 -12 12 -14 -15 -16 -17 -18 -19 20 26 27 -23 24 -25 -26 -27 -28 -29 -30
leaf_value=-0,0026943317338079132 0,0071564298938480674 -0,018895117845157246 -0,016809390569753883 -0,015265676643875828 0,035985800909814528 -0,0018339110559112257 -0,023308809775707887 0,018481852283439716 -0,0096272298023743347 -0,0055962563987058817 0,0045046071696030919 0,00048844435397631331 -0,019156093164055307 -0,0060700990936541164 0,016534349751224465 0,01235172826076392 -0,033024995862112841 -0,013045814652406201 -0,0033547062444304319 0,0049350605230839804 0,0097401838437308191 -0,029133176285054036 0,0041067487397828898 0,0022746147598053158 -0,039660574137592934 -0,011649920689618076 0,013568249821420254 0,0010849439391285799 -0,017206985872600743
leaf_count=26434 12734 3070 25394 22841 49493 94549 13516 19992 8036 60525 2765 49360 6703 1323 6741 19122 2339 51749 57406 103937 19318 2110 30170 18458 690 29270 16918 43955 872
internal_value=0 0,330985 -0,054423 -0,00201369 0,469262 0,0127869 -0,177152 0,534244 0,0390999 -0,158036 0,614942 -0,131554 -0,0357173 0,647548 0,668267 0,0701874 -0,115189 -0,180158 0,0567003 0,103212 0,00704521 -0,0470771 0,023525 -0,100124 0,0631098 -0,147997 0,122834 0,0744885 0,337665
internal_count=799790 127850 671940 464693 93920 441852 207247 81186 365351 193731 60322 168337 56063 57557 56234 268692 76501 112274 249570 128891 120679 96659 33930 74162 30860 55704 120855 63273 20864
shrinkage=0.05


Tree=31
num_leaves=30
num_cat=0
split_feature=59 59 4 83 4 4 26 1 4 47 46 87 33 29 51 86 51 80 83 8 86 83 81 60 93 29 87 59 13
split_gain=3114,18 1051,97 991,522 637,522 454,766 408,329 396,53 392,413 331,61 327,432 306,351 275,721 272,131 215,566 255,675 197,961 164,533 155,333 151,591 141,489 140,386 238,334 207,118 139,106 135,791 126,918 110,091 107,98 103,943
threshold=1,5000000000000002 2,5000000000000004 43488,000000000007 17373,500000000004 53747,000000000007 13518,500000000002 953868,50000000012 7,5000000000000009 56572,000000000007 1,0000000180025095e-35 1,0000000180025095e-35 1397,5000000000002 -1,0000000180025095e-35 11128,500000000002 14,500000000000002 274,00000000000006 11,500000000000002 14950,500000000002 10413,000000000002 170,50000000000003 274,00000000000006 12489,500000000002 1,5000000000000002 2,5000000000000004 2231,0000000000005 6143,5000000000009 312,50000000000006 1,0000000180025095e-35 16716,500000000004
decision_type=2 2 2 2 2 2 2 2 2 2 2 2 2 2 2 2 2 2 2 2 2 2 2 2 2 2 2 2 2
left_child=2 5 12 4 6 -2 9 -6 11 10 13 16 -1 14 20 17 24 -13 -12 28 22 -22 27 -11 26 -3 -7 -4 -14
right_child=1 25 3 -5 7 8 -8 -9 -10 23 18 15 19 -15 -16 -17 -18 -19 -20 -21 21 -23 -24 -25 -26 -27 -28 -29 -30
leaf_value=0,010710530307449954 -0,00035672312331257844 -0,0049848430745082946 0,0072416770511042009 -0,015882908420796676 -0,012854566734370094 0,032796680400343177 0,0055991431079761012 0,049957626476551886 0,001908678411781068 -0,0034151223265158704 -0,037175729167864845 0,0036845171990460379 -0,011708894168334181 0,0086505465149577816 -0,0085713111307880487 0,015623451792244173 0,039180330240730837 0,044543439144028335 0,0073692448287916226 -0,0057549911364056369 -0,0030378024929683198 0,012270799200024576 -0,0080813008849365629 -0,013719608817154762 0,0019544598978687711 0,0073616682393142247 0,019041017074888152 0,00094119665443661226 -0,019285300717462112
leaf_count=5252 7384 17121 66135 29424 36566 9710 123144 1056 6220 27972 3684 1037 44846 30519 33204 4462 6593 22806 1085 22459 110109 11341 15083 26579 4295 16809 31413 47249 36233
internal_value=0 0,317065 -0,0517629 -0,0185514 -0,00306516 0,451025 0,0128787 -0,221035 0,499676 -0,0199342 0,00452576 0,543065 -0,235468 0,0118113 -0,00546161 0,742079 0,451541 0,838711 -0,531326 -0,259789 0,0165692 -0,0322698 0,0631325 -0,166062 0,403756 0,0223573 0,444836 0,0922921 -0,301215
internal_count=799790 127850 671940 563150 533726 93920 496104 37622 86536 372960 318409 80316 108790 313640 283121 28305 52011 23843 4769 103538 249917 121450 128467 54551 45418 33930 41123 113384 81079
shrinkage=0.05


Tree=32
num_leaves=30
num_cat=0
split_feature=4 29 4 50 69 50 84 44 4 4 87 94 18 31 26 23 27 46 4 28 87 11 87 84 81 86 84 86 81
split_gain=1228,32 719,897 545,451 376,667 295,969 283,191 499,302 333,063 264,631 304,738 250,658 229,947 210,843 193,207 191,996 191,041 171,452 156,925 134,033 132,08 131,961 131,3 124,55 121,789 116,024 118,645 111,52 109,726 118,141
threshold=43488,000000000007 4095,5000000000005 53747,000000000007 1,0000000180025095e-35 1,5000000000000002 1,5000000000000002 18016,500000000004 1,0000000180025095e-35 63176,500000000007 63687,500000000007 1112,5000000000002 180303,50000000003 333,50000000000006 1355,0000000000002 953867,50000000012 2,5000000000000004 714788,50000000012 1,0000000180025095e-35 53388,000000000007 1,0000000180025095e-35 104,50000000000001 209,50000000000003 230,50000000000003 630,50000000000011 1,5000000000000002 274,00000000000006 18073,500000000004 274,00000000000006 1,5000000000000002
decision_type=2 2 2 2 2 2 2 2 2 2 2 2 2 2 2 2 2 2 2 2 2 2 2 2 2 2 2 2 2
left_child=12 13 3 4 14 11 7 -7 -4 -10 22 -5 15 23 17 -1 -16 18 -3 -13 -9 -17 -8 -2 25 -15 -24 28 -20
right_child=1 2 8 5 -6 6 10 20 9 -11 -12 19 -14 24 16 21 -18 -19 27 -21 -22 -23 26 -25 -26 -27 -28 -29 -30
leaf_value=-0,016574594483348425 0,0026254839906088619 -0,0079506196598438505 -0,012210940580257762 0,0019441534032956101 0,0074100944363967016 0,027478037969125305 -0,046532841423722458 -0,023428047441578018 0,043065509332644587 -0,0026187012988893076 -0,038737598349778218 0,010700432787893371 0,0099903916637129886 0,002753306856090933 0,011905258930230162 -0,011089384106082161 0,0011377912626595837 -0,033807644882868124 0,0042579003483525267 0,022813966147474381 0,0098206926995052807 -0,002819725015780805 -0,027671301208869587 -0,01526430081537496 -0,012357067398710191 -0,0060786410175094896 0,0047709915296220273 -0,0025322188726038335 -0,0063137238953238604
leaf_count=37249 4773 24548 33545 31494 86835 6538 716 2536 2028 6786 3822 106807 5447 33873 25488 49868 40469 1569 75342 10599 2367 35966 1377 27973 12332 29791 4993 81515 13144
internal_value=0 0,0348882 0,0643744 0,082494 0,0436622 0,160939 -0,0512974 0,246787 -0,160953 0,158668 -0,358639 0,193529 -0,187366 -0,118376 0,00943205 -0,205848 0,105327 -0,022701 -0,0175553 0,235423 -0,150813 -0,151783 -0,134152 -0,252553 -0,0623519 -0,0277235 -0,0444404 0,00290726 0,053558
internal_count=799790 671260 562518 520159 348910 171249 22349 11441 42359 8814 10908 148900 128530 108742 262075 123083 65957 196118 194549 117406 4903 85834 7086 32746 75996 63664 6370 170001 88486
shrinkage=0.05


Tree=33
num_leaves=30
num_cat=0
split_feature=59 59 4 50 4 26 4 27 33 46 87 30 4 36 83 80 50 84 71 59 94 68 36 83 87 50 26 71 71
split_gain=2829,02 973,661 810,273 728,628 365,991 365,665 332,97 287,088 236,944 224,446 222,965 216,374 207,71 174,173 158,16 154,246 150,564 442,937 273,515 264,07 227,289 147,416 139,167 138,517 132,184 130,263 126,073 122,262 114,215
threshold=1,5000000000000002 2,5000000000000004 43488,000000000007 1,0000000180025095e-35 43764,000000000007 343402,00000000006 53650,500000000007 410985,00000000006 -1,0000000180025095e-35 1,0000000180025095e-35 1397,5000000000002 10,850000000000003 53747,000000000007 28,500000000000004 17373,500000000004 15150,000000000002 1,5000000000000002 17418,500000000004 3,5000000000000004 1,0000000180025095e-35 180156,50000000003 6,5000000000000009 29,500000000000004 15681,000000000002 1121,5000000000002 1,0000000180025095e-35 953868,50000000012 1,0000000180025095e-35 5,5000000000000009
decision_type=2 2 2 2 2 2 2 2 2 2 2 2 2 2 2 2 2 2 2 2 2 2 2 2 2 2 2 2 2
left_child=2 4 8 5 -2 9 10 -7 -1 11 21 -4 16 27 -13 -12 20 18 -18 -19 -5 28 -15 26 -21 -3 -9 -10 -6
right_child=1 25 3 12 6 7 -8 23 13 -11 15 14 -14 22 -16 -17 17 19 -20 24 -22 -23 -24 -25 -26 -27 -28 -29 -30
leaf_value=0,010176914429151416 0,0067713305670909635 -0,0040446628512034758 -0,017603139932189201 -0,00044869773724747408 0,025926291107553845 0,0039306195522831218 0,0032098330117063933 -0,0048997444511905729 -0,018902729501985075 -0,031760748645646951 0,041908195456884019 -0,0044291701323498339 -0,0086949890216334608 0,004421630782192207 -0,019395395214638855 0,017730630788969512 0,022620446812977313 -0,046451756250431075 -0,010566826804424792 -0,0002552880010259056 0,0088669746554798246 -0,001032489278407702 -0,013486253487377307 -0,010166861528616532 -0,026434281840569552 0,0087497845547320745 0,0014619233561612628 -0,010724900620342249 -0,0084754495812495324
leaf_count=5252 14379 20436 18104 35568 42634 80312 6820 72801 34719 4336 21833 119010 12014 10696 8231 4347 7748 2339 3744 6148 106904 2728 8056 27177 2837 13494 55877 50067 1179
internal_value=0 0,303639 -0,0492569 -0,0192746 0,433779 -0,0687136 0,501552 -0,0194202 -0,215929 -0,147578 0,553169 -0,134856 0,0879696 -0,238779 -0,106603 0,743609 0,106262 -0,0455596 0,234671 -0,326532 0,13073 0,464424 -0,0609967 -0,0700137 -0,170504 0,0204334 -0,042801 -0,280568 0,498194
internal_count=799790 127850 671940 563150 93920 385848 79541 236167 108790 149681 72721 145345 177302 103538 127241 26180 165288 22816 11492 11324 142472 46541 18752 155855 8985 33930 128678 84786 43813
shrinkage=0.05


Tree=34
num_leaves=30
num_cat=0
split_feature=59 59 5 50 4 26 4 67 51 4 36 31 71 27 51 17 82 81 97 50 82 4 32 5 35 74 29 49 36
split_gain=2572 896,37 749,121 500,684 343,074 329,51 278,335 211,849 205,634 211,139 285,7 204,062 193,074 181,566 158,836 142,743 138,495 137,358 134,114 117,632 116,279 118,053 113,768 110,054 106,147 105,354 107,531 104,747 104,445
threshold=1,5000000000000002 2,5000000000000004 1,5000000000000002 1,0000000180025095e-35 13518,500000000002 312384,00000000006 56572,000000000007 1,0000000180025095e-35 14,500000000000002 15604,500000000002 27,500000000000004 1355,0000000000002 5,5000000000000009 410985,00000000006 11,500000000000002 1,0000000180025095e-35 13,500000000000002 1,5000000000000002 4,5000000000000009 1,0000000180025095e-35 13,500000000000002 9211,5000000000018 1153,5000000000002 1,5000000000000002 302,50000000000006 1,0000000180025095e-35 8191,5000000000009 1,0000000180025095e-35 29,500000000000004
decision_type=2 2 2 2 2 2 2 2 2 2 2 2 2 2 2 2 2 2 2 2 2 2 2 2 2 2 2 2 2
left_child=2 4 3 5 -2 11 7 12 9 10 20 16 14 24 18 -5 -1 27 23 -3 21 -4 25 -6 -7 26 -13 -11 -12
right_child=1 19 8 15 6 13 -8 -9 -10 17 28 22 -14 -15 -16 -17 -18 -19 -20 -21 -22 -23 -24 -25 -26 -27 -28 -29 -30
leaf_value=-0,0033984311051525311 -0,00012519226826070138 -0,0038424123348697356 -0,0054551301580765274 0,0053583276437073057 0,030991740056882568 0,0080236430327652094 0,0020043388636470988 0,0015067033199051298 -0,016750741383904585 -0,0022694757246227207 0,0098988283575861032 -0,0086513975274758251 -0,010294967212210427 -0,0021368762874896161 0,04180271910515998 -0,010606794436666098 -0,018618009549776906 -0,01254545402501582 0,013216471834972977 0,0083187052414409116 -0,020494998476524362 -0,029616356967041704 -0,013404163984778009 0,018993085143307355 0,00015886591424413307 0,001094966406213265 0,0017981983134730765 -0,018359443904841146 -0,01404206224267634
leaf_count=9273 7384 20436 14470 142454 43177 37530 6220 3861 23433 107483 7022 38513 1667 114403 9656 5899 20503 19148 9359 13494 25767 2737 12256 12596 32498 37833 13531 4521 2666
internal_value=0 0,290741 -0,0468534 -0,00253591 0,416736 -0,0479965 0,462438 0,503254 -0,151219 -0,128044 -0,241649 -0,125857 0,533667 0,0066971 0,552539 0,0943396 -0,277286 -0,0846913 0,511007 0,0194188 -0,318757 -0,184463 -0,0836489 0,557215 0,0875071 -0,0589429 -0,118131 -0,0580594 0,0712646
internal_count=799790 127850 671940 464693 93920 316340 86536 80316 207247 183814 52662 131909 76455 184431 74788 148353 29776 131152 65132 33930 42974 17207 102133 55773 70028 89877 52044 112004 9688
shrinkage=0.05


Tree=35
num_leaves=30
num_cat=0
split_feature=59 59 5 50 86 87 86 46 51 86 86 80 46 50 8 12 32 86 80 86 87 28 59 12 86 87 46 86 71
split_gain=2337,9 824,819 678,153 452,1 327,224 329,396 267,146 238,439 234,075 227,889 199,865 169,117 156,278 154,389 154,015 150,45 175,841 143,69 143,088 141,626 135,98 126,75 125,875 119,697 111,993 111,433 106,553 104,508 114,801
threshold=1,5000000000000002 2,5000000000000004 1,5000000000000002 1,0000000180025095e-35 272,00000000000006 1410,5000000000002 274,00000000000006 1,0000000180025095e-35 1,5000000000000002 272,00000000000006 274,00000000000006 15150,000000000002 1,5000000000000002 1,0000000180025095e-35 106,50000000000001 42,500000000000007 1091,0000000000002 272,00000000000006 14650,000000000002 274,00000000000006 371,50000000000006 1,0000000180025095e-35 1,0000000180025095e-35 178,50000000000003 272,00000000000006 42,500000000000007 1,0000000180025095e-35 272,00000000000006 3,5000000000000004
decision_type=2 2 2 2 2 2 2 2 2 2 2 2 2 2 2 2 2 2 2 2 2 2 2 2 2 2 2 2 2
left_child=2 4 3 7 25 11 -7 8 14 -4 13 -6 -9 -11 -1 -10 17 18 -17 22 -13 27 -19 -21 -3 -2 -26 28 -5
right_child=1 24 9 21 5 6 -8 12 15 10 -12 20 -14 -15 -16 16 -18 19 -20 23 -22 -23 -24 -25 26 -27 -28 -29 -30
leaf_value=0,014433801350951356 0,030291931645506177 -0,017581698599159902 -0,014606634478068465 0,0012967920011001343 0,010646702088792995 0,040373576797298645 0,011137344126715826 -0,033187078401429392 0,0057465032557847779 -0,0050143688301164868 -0,0090279421492357181 0,034619364793354541 0,033765675509299181 0,0046129987995943891 0,0012148524313289166 0,00024990933040442868 -0,016157681881533031 0,0035966380750057946 -0,014534164807061104 -0,0069395029074724723 0,018197282026665169 0,015350160731655797 -0,0039008882081338703 0,00033684405009712154 0,0036227997521144357 0,0014782739867249364 -0,03726103152398659 0,0044868832131173429 -0,021089027297462273
leaf_count=12014 1664 3070 39060 7351 21886 23910 5080 4289 18089 54668 87789 10573 393 25730 35671 9882 11396 57183 21694 75118 19737 10288 37773 32838 30170 11070 690 127257 3457
internal_value=0 0,278337 -0,0445605 -0,00241156 0,400264 0,462213 0,68234 -0,0456183 -0,0392951 -0,143997 -0,112059 0,360207 -0,533155 -0,0384263 0,0909556 -0,0628315 -0,0759191 -0,0641114 -0,193862 -0,0448479 0,47476 0,0896673 0,0120618 -0,0945635 0,0184545 0,10214 0,0548588 0,0735981 -0,118009
internal_count=799790 127850 671940 464693 93920 81186 28990 316340 311658 207247 168187 52196 4682 80398 47685 263973 245884 234488 31576 202912 30310 148353 94956 107956 33930 12734 30860 138065 10808
shrinkage=0.05


Tree=36
num_leaves=30
num_cat=0
split_feature=59 59 4 50 4 83 4 69 18 87 25 4 46 37 80 56 17 4 80 4 1 80 8 83 13 1 5 12 25
split_gain=2124,84 758,387 636,437 550,053 323,23 323,054 283,638 271,33 214,532 207,676 179,736 171,472 167,767 164,876 138,755 134,253 133,055 130,355 120,959 116,7 116,147 110,148 109,568 108,394 105,819 104,254 103,276 102,946 98,7701
threshold=1,5000000000000002 2,5000000000000004 43488,000000000007 1,0000000180025095e-35 43764,000000000007 17373,500000000004 53467,500000000007 1,5000000000000002 333,50000000000006 1458,5000000000002 2258,5000000000005 53863,000000000007 1,0000000180025095e-35 124,00000000000001 15150,000000000002 4,5000000000000009 1,0000000180025095e-35 53747,000000000007 15150,000000000002 9508,5000000000018 7,5000000000000009 15050,000000000002 208,50000000000003 17620,000000000004 16716,500000000004 7,5000000000000009 1,5000000000000002 209,50000000000003 78,000000000000014
decision_type=2 2 2 2 2 2 2 2 2 2 2 2 2 2 2 2 2 2 2 2 2 2 2 2 2 2 2 2 2
left_child=2 4 8 5 -2 7 9 10 13 15 28 16 17 24 21 -6 18 22 -5 27 -19 -11 -12 26 -1 -13 -3 -15 -4
right_child=1 23 3 11 6 -7 -8 -9 -10 14 12 25 -14 19 -16 -17 -18 20 -20 -21 -22 -23 -24 -25 -26 -27 -28 -29 -30
leaf_value=-0,0093417633191204396 0,0051675064280158924 0,0056943981927513121 0,009786253509247474 0,0081003839625522749 0,023062265141270508 -0,014185312426555309 0,0025101166920286303 0,0027198053119257943 0,010349183453825876 0,0025554004754614361 -0,0013509795134436463 -0,0099043890281053787 -0,02610890568013078 0,011712474559604391 0,014529556224709457 0,0028030471281927289 -0,0098920829708926874 -0,014018621706960048 0,0025285066962380072 -0,0098146054979515798 0,047734119317311564 0,042843719341108935 0,013001482288126826 -0,024886050227710392 -0,016916922798998226 0,043376107479355858 -0,0070382523996541414 -0,015071741799625291 -0,0081700521034918198
leaf_count=46169 14379 23294 3230 78560 45066 26375 6967 87369 5189 773 162618 11523 3396 7120 3526 4416 6125 11134 80692 10192 326 18793 5563 1595 38188 402 9041 1932 85837
internal_value=0 0,266425 -0,0423772 -0,0158595 0,384325 -0,0588579 0,449921 -0,0435534 -0,190843 0,499829 -0,0750692 0,0774079 -0,0390703 -0,212856 0,708834 0,421217 0,0939623 -0,0313444 0,105227 -0,0424469 -0,244441 0,804864 -0,0175173 0,0175376 -0,254536 -0,161919 0,0428602 0,123833 -0,15015
internal_count=799790 127850 671940 563150 93920 385848 79541 359473 108790 72574 272104 177302 183037 103601 23092 49482 165377 179641 159252 19244 11460 19566 168181 33930 84357 11925 32335 9052 89067
shrinkage=0.05


Tree=37
num_leaves=30
num_cat=0
split_feature=59 59 80 50 4 5 87 26 80 80 80 46 4 84 4 27 3 29 28 87 80 4 44 4 35 26 29 37 80
split_gain=1931,3 697,126 580,1 495,233 301,124 284,583 255,616 223,478 223,413 172,826 191,118 172,523 160,536 158,614 168,502 142,804 128,587 128,243 128,234 127,51 125,407 147,618 123,711 138,825 113,02 107,509 106,954 104,445 102,839
threshold=1,5000000000000002 2,5000000000000004 15050,000000000002 1,0000000180025095e-35 13518,500000000002 1,5000000000000002 1397,5000000000002 312384,00000000006 15150,000000000002 15050,000000000002 15150,000000000002 1,0000000180025095e-35 43488,000000000007 18016,500000000004 41579,500000000007 259019,50000000003 157,00000000000003 6143,5000000000009 1,0000000180025095e-35 717,50000000000011 14650,000000000002 41579,500000000007 1,0000000180025095e-35 53467,500000000007 2021,0000000000002 241948,50000000003 4095,5000000000005 121,50000000000001 15150,000000000002
decision_type=2 2 2 2 2 2 2 2 2 2 2 2 2 2 2 2 2 2 2 2 2 2 2 2 2 2 2 2 2
left_child=2 4 20 5 -2 7 8 11 24 -8 -11 16 27 -7 -15 -9 17 28 -14 -10 21 -1 23 -23 -6 -22 -3 -5 -4
right_child=1 26 3 12 6 13 9 15 19 10 -12 -13 18 14 -16 -17 -18 -19 -20 -21 25 22 -24 -25 -26 -27 -28 -29 -30
leaf_value=-0,016225021000576736 -0,0012106175475615885 -0,014583260271808385 -0,0026531179231622576 -0,0078574566739445656 0,012419391652698657 -0,0011274763550120066 -0,0013993051957640952 0,005717590546826825 0,031405588637115837 0,039240444535803068 0,01377390973989983 -0,028343094838099183 0,0037880045094103552 -0,015144573748649285 -0,005707057876929174 -0,00078632380144934028 0,030502485545239589 0,00067506928860495172 0,01486157890430438 0,015341903852336023 -0,022110640696301021 0,012074805113016448 -0,0076650995700743617 -0,011649003572480545 -0,0095281059870773732 -0,010626994205981342 0,0029230016340286193 0,0067766368283831702 -0,010180638299470812
leaf_count=11357 7384 4032 34786 20839 25849 32005 1619 49543 16007 22900 5083 3659 150966 36630 46535 109386 1085 35368 11596 12109 12035 9279 17100 3600 2969 39038 29898 6880 40253
